tree
version=v4
num_class=1
num_tree_per_iteration=1
label_index=0
max_feature_idx=11
objective=binary sigmoid:1
feature_names=CNT_CHILDREN Annual_Income Loan_Amount Loan_Term Employment_Years Age CODE_GENDER_encoded NAME_EDUCATION_TYPE_encoded FLAG_OWN_CAR_encoded FLAG_OWN_REALTY_encoded NEW_EXT_SOURCE PAYMENT_RATE
feature_infos=[0:7] [25650:1113750] [45000:4050000] [0:45] [0:1000] [20:69] [0:2] [0:4] [0:1] [0:1] [0:0.84655400000000003] [0.031037332431128294:0.12442957597804374]
tree_sizes=3378 3485 3524 3526 3478 3489 3531 3500 3472 3481 3538 3496 3498 3497 3490 3495 3535 3476 3539 3509 3491 3494 3504 3490 3481 3498 3529 3527 3525 3527 3478 3530 3494 3479 3495 3520 3517 3524 3508 3471 3506 3518 3513 3519 3520 3534 3543 3515 3516 3521 3531 3529 3521 3539 3484 3494 3527 3523 3531 3520 3529 3531 3512 3530 3522 3514 3526 3533 3540 3528 3557 3523 3509 3533 3538 3528 3535 3545 3545 3529 3527 3519 3502 3524 3530 3530 3552 3544 3534 3548 3542 3543 3530 3524 3551 3549 3543 3554 3523 3541 3544 3540 3540 3536 3539 3535 3538 3529 3510 3560 3550 3526 3552 3539 3529 3552 3556 3565 3543 3526 3523 3541 3535 3542 3547 3526 3521 3540 3550 3536 3540 3525 3542 3508 3532 3536 3548 3547 3533 3575 3551 3536 3552 3549 3535 3508 3542 3538 3550 3530 3563 3538 3531 3552 3557 3533 3542 3534 3540 3540 3528 3549 3544 3526 3553 3528 3555 3510 3564 3536 3497 3555 3542 3550 3525 3538 3539 3523 3530 3540 3544 3517 3536 3555 3501 3555 3527 3536 3548 3530 3528 3551 3509 3537 3567 3545 3543 3542 3530 3552 3491 3526 3482 3538 3487 3517 3510 3518 3534 3513 3549 3520 3545 3537 3523 3547 3541 3558 3542 3523 3515 3472 3542 3498 3494 3542 3528 3516 3564 3541 3557 3549 3546 3558 3554 3509 3520 3531 3497 3511 3542 3539 3539 3558 3533 3529 3544 3517 3550 3485 3505 3486 3483 3471 3509 3549 3542 3562 3494 3532 3525 3502 3528 3565 3520 3524 3508 3500 3533 3544 3519 3474 3511 3528 3543 3513 3520 3536 3543 3513 3554 3540 3556 3495 3537 3543 3545 3525 3499 3537 3533 3508 3528 3560 3547 3527 3509 3494 3527 3520 3532 3525 3540 3548 3532 3530 3485 3492 3526 3532 3497 3513 3504 3490 3517 3516 3538 3508 3550 3499 3508 3477 3523 3505 3490 3461 3537 3489 3510 3541 3496 3512 3454 3479 3405 3525 3529 3505 3507 3413 3504 3515 3498 3509 3466 3480 3480 3516 3527 3506 3451 3527 3450 3555 3434 3516 3504 3546 3541 3508 3542 3512 3519 3463 3523 3475 3476 3509 3539 3499 3504 3504 3495 3485 3356 3519 3474 3525 3508 3522 3462 3421 3415 3443 3424 3498 3440 3456 3429 3482 3498 3430 3397 3511 3456 3493 3453 3497 3444 3493 3477 3508 3452 3341 3360 3488 3518 3508 3460 3523 3490 3450 3482 3493 3514 3404 3483 3495 3436 3449 3448 3455 3455 3481 3524 3415 3522 3474 3485 3516 3463 3464 3480 3476 3501 3490 3518 3497 3500 3526 3500 3437 3445 3521 3511 3504 3487 3528 3496 3536 3464 3487 3472 3418 3481 3510 3490 3515 3495 3508 3414 3529 3519 3518 3449 3468 3421 3453 3443 3453 3473 3431 3418 3454 3454 3473 3483 3494 3488 3452 3496 3558 3498 3527 3536 3485 3418 3422 3436 3452 3431 3484 3493 3453 3483 3479 3530 3464 3466 3521 3428 3463 3464 3451 3455 3403 3355 3385 3412 3425 3516 3516 3418 3512 3520 3529 3392 3459 3419 3424 3466 3483 3475 3460 3437 3482 3465 3499 3475 3456 3349 3436 3405 3477 3429 3417 3464 3395 3388 3383 3529 3494 3481 3502 3502 3407 3428 3410 3355 3462 3419 3357 3398 3466 3541 3432 3451 3482 3433 3444 3451 3482 3460 3384 3433 3441 3461 3437 3438 3527 3351 3452 3490 3432 3508 3447 3448 3441 3448 3467 3432 3355 3408 3407 3390 3485 3442 3474 3452 3476 3469 3375 3375 3448 3390 3438 3474 3433 3400 3401 3466 3449 3459 3475 3495 3466 3496 3527 3422 3400 3456 3432 3369 3456 3448 3445 3495 3493 3468 3462 3509 3493 3527 3477 3398 3447 3346 3418 3461 3453 3477 3456 3506 3514 3523 3466 3469 3515 3479 3465 3459 3462 3455 3424 3435 3515 3442 3514 3515 3532 3417 3431 3405 3458 3443 3503 3390 3393 3467 3407 3463 3408 3479 3450 3461 3382 3398 3450 3382 3402 3426 3480 3415 3482 3413 3475 3464 3421 3468 3466 3415 3421 3407 3458 3448 3468 3429 3375 3451 3429 3420 3436 3398 3428 3432 3383 3433 3393 3359 3450 3368 3409 3442 3426 3447 3477 3458 3399 3480 3491 3418 3462 3335 3369 3354 3368 3314 3375 3438 3409 3368 3368 3444 3389 3468 3410 3418 3427 3430 3409 3420 3468 3407 3480 3421 3417 3389 3422 3446 3427 3398 3506 3431 3464 3435 3288 3346 3313 3344 3389 3446 3429 3340 3395 3406 3419 3394 3440 3424 3444 3365 3366 3411 3444 3415 3449 3500 3464 3395 3383 3385 3375 3419 3439 3383 3326 3409 3373 3508 3370 3486 3456 3435 3506 3470 3389 3426 3373 3442 3438 3427 3389 3438 3435 3470 3453 3424 3453 3451 3471 3454 3410 3458 3489 3450 3432 3443 3429 3409 3410 3457 3393 3487 3448 3394 3366 3366 3356 3373 3383 3410 3474 3383 3377 3375 3461 3447 3463 3450 3428 3449 3412 3487 3397 3414 3417 3465 3407 3459 3458 3510 3501 3504 3422 3450 3446 3380 3405 3345 3360 3330 3362 3336 3488 3494 3458 3385 3468 3453 3456 3416 3424 3416 3422 3517 3394 3379 3378 3490 3345 3400 3396 3413 3408 3433 3446 3388 3388 3401 3427 3417 3462 3422 3411 3421 3455 3428 3440 3427 3406 3384 3392 3373 3325 3403 3445 3437 3430 3489 3495 3349 3398 3456 3366 3435 3363 3379 3399 3383 3417 3415 3397 3391 3374 3397 3425 3361 3358 3337 3394 3456 3497 3472 3385 3499 3393 3344 3359 3407 3373 3448 3398 3380 3371 3391 3413 3402 3367 3409 3389 3410 3321 3322 3319 3344 3441 3438 3431 3398 3436 3397 3400 3460 3434 3446 3382 3354 3336 3395 3397 3401 3408 3333 3371 3325 3403 3333 3402 3467 3449 3480 3471 3483 3464 3419 3375 3410 3403 3376 3392 3443 3314 3212 3285 3221 3391 3373 3394 3417 3391 3398 3453 3439 3415 3471 3429 3434 3447 3448 3406

Tree=0
num_leaves=31
num_cat=0
split_feature=10 10 4 10 4 10 7 3 3 4 3 7 3 7 5 10 5 10 10 4 3 3 3 5 5 5 3 4 6 3
split_gain=4794.71 1425.22 598.896 487.342 444.482 256.94 161.713 152.06 153.364 149.891 107.354 94.0781 78.6168 73.3546 70.9773 69.7058 62.3929 62.2687 57.6757 49.9123 49.5979 47.8321 62.3636 38.2878 36.3525 35.8753 35.3651 35.3201 33.6315 31.7132
threshold=0.35062700000000008 0.20782750000000003 6.5000000000000009 0.46170800000000006 13.500000000000002 0.063623500000000013 1.5000000000000002 21.500000000000004 10.500000000000002 5.5000000000000009 21.500000000000004 2.5000000000000004 10.500000000000002 1.5000000000000002 38.500000000000007 0.56790050000000003 53.500000000000007 0.25867450000000008 0.16252900000000003 7.5000000000000009 11.500000000000002 22.500000000000004 10.500000000000002 53.500000000000007 38.500000000000007 26.500000000000004 30.500000000000004 3.5000000000000004 1.0000000180025095e-35 10.500000000000002
decision_type=2 2 2 2 2 2 2 2 2 2 2 2 2 2 2 2 2 2 2 2 2 2 2 2 2 2 2 2 2 2
left_child=1 2 5 9 6 20 -3 8 -8 11 13 -2 -4 -7 -14 19 17 -10 -15 -5 -1 22 -13 -20 -24 -19 -22 -27 -11 -6
right_child=3 4 12 15 29 10 7 -9 16 28 -12 21 14 18 -16 -17 -18 25 23 -21 26 -23 24 -25 -26 27 -28 -29 -30 -31
leaf_value=-2.4140586987657242 -2.4345855013061128 -2.4298951561579973 -2.4340961218065922 -2.4359025475642317 -2.4379012184655777 -2.4190998113847755 -2.4296521255471246 -2.427889865568476 -2.4169181917863418 -2.4360461916489782 -2.4191986561361056 -2.4346034224837028 -2.4145807473535927 -2.4067327816047226 -2.4245661399122969 -2.4394586562070577 -2.4292415418309066 -2.4267490039337689 -2.4125027967340618 -2.4384178937867294 -2.3931517836366836 -2.4325055761106968 -2.4254288519302487 -2.4316059258257114 -2.4298459585417285 -2.4188485927544172 -2.416742904794094 -2.4234323372622613 -2.4332024369471004 -2.4323897611766183
leaf_weight=16.70994758605957 623.46671104431152 611.21274948120117 69.736181259155273 1747.8605175018311 118.90056037902832 100.70528411865234 240.40044593811035 717.7108154296875 373.33736228942871 1449.8293190002441 226.95822143554688 142.74008560180664 87.263059616088867 303.89824676513672 413.81256866455078 1951.2762794494629 85.703464508056641 131.22878837585449 232.30540466308594 1466.6877994537354 94.763969421386719 462.45708274841309 417.1545581817627 11.511297225952147 343.77932167053223 372.52043151855469 7.575176239013671 323.5788516998291 591.97774314880371 889.04347801208496
leaf_count=225 8395 8230 939 23535 1601 1356 3237 9664 5027 19522 3056 1922 1175 4092 5572 26274 1154 1767 3128 19749 1276 6227 5617 155 4629 5016 102 4357 7971 11971
internal_value=-2.43161 -2.42408 -2.41603 -2.43593 -2.42734 -2.41134 -2.42532 -2.42408 -2.4223 -2.43332 -2.41322 -2.43137 -2.4242 -2.41114 -2.42282 -2.43796 -2.42092 -2.42033 -2.40968 -2.43705 -2.3975 -2.4299 -2.42856 -2.41339 -2.42742 -2.42188 -2.39485 -2.42097 -2.43522 -2.43304
internal_weight=0 5428.88 1565.24 9197.23 3863.64 994.428 2855.69 2244.48 1526.77 4031.4 875.378 1989.6 570.812 648.42 501.076 5165.82 1286.37 1200.67 547.715 3214.55 119.049 1366.13 903.674 243.817 760.934 827.328 102.339 696.099 2041.81 1007.94
internal_count=196941 73100 21076 123841 52024 13390 38452 30222 20558 54283 11787 26790 7686 8731 6747 69558 17321 16167 7375 43284 1603 18395 12168 3283 10246 11140 1378 9373 27493 13572
is_linear=0
shrinkage=1


Tree=1
num_leaves=31
num_cat=0
split_feature=10 10 5 10 5 10 7 3 2 5 3 3 2 7 2 6 7 10 3 2 3 10 2 10 10 2 3 2 6 3
split_gain=4686.2 1364.87 492.749 482.655 433.71 213.232 170.89 132.611 145.607 105.98 101.808 94.303 155.439 96.724 92.2866 76.829 76.2338 69.4606 61.2001 59.4261 43.5672 40.9815 39.6854 40.1779 38.0582 37.8395 36.6692 35.9412 35.7984 35.5325
threshold=0.35062700000000008 0.20782750000000003 49.500000000000007 0.46170800000000006 51.500000000000007 0.063623500000000013 1.5000000000000002 21.500000000000004 305977.50000000006 50.500000000000007 21.500000000000004 21.500000000000004 284323.50000000006 1.5000000000000002 279173.00000000006 1.0000000180025095e-35 2.5000000000000004 0.56790050000000003 11.500000000000002 668394.00000000012 11.500000000000002 0.42158800000000002 674921.00000000012 0.13265350000000001 0.15691500000000003 323424.00000000006 12.500000000000002 180294.50000000003 1.0000000180025095e-35 10.500000000000002
decision_type=2 2 2 2 2 2 2 2 2 2 2 2 2 2 2 2 2 2 2 2 2 2 2 2 2 2 2 2 2 2
left_child=1 2 5 9 6 20 -3 8 27 10 14 12 24 -14 -2 29 -16 -5 -10 -20 -1 -18 23 -15 -7 -6 -21 -8 -11 -4
right_child=3 4 15 17 25 11 7 -9 18 28 -12 -13 13 22 16 -17 21 -19 19 26 -22 -23 -24 -25 -26 -27 -28 -29 -30 -31
leaf_value=0.016312821072559856 -0.0020049513462086018 0.0016116959859450986 -0.0048289966875624648 -0.0054162071920033127 -0.003418669916431446 0.01723887378873518 0.0031941419027804335 0.0039640920620572671 0.0017164994625595961 -0.0050738228178777312 -0.0031209169567308877 0.011991800514096465 0.012511697698033545 0.032270512882472499 -0.001162515075848399 0.012854175467737252 0.0063333696558741112 -0.0078258527355526842 0.014570878346896379 0.025478458821013232 0.033447582952021798 0.0013302536464304053 0.016747892742695347 0.024134034898179512 0.010135873610935816 0.00037859226352711254 0.0062488463669227359 0.0078716076038111357 -0.0011734641290247875 0.0052836539731237076
leaf_weight=18.563178807497025 682.37147799134254 595.98367755115032 38.842695280909538 3199.9030277431011 409.53805227577686 160.46737606823444 278.77384431660175 667.86412764340639 51.995868019759655 947.11158560216427 1014.0543453171849 253.70009200274944 71.576805837452412 97.406514048576355 343.32901465147734 144.67727782577276 463.29722017794847 1938.4626426547766 572.09101097285748 10.861644126474856 110.58315729349852 257.5716188699007 47.930681072175503 193.12008260935545 152.4051156938076 725.24594935029745 148.5118942335248 416.62017182260752 317.89730326831341 296.52258567512035
leaf_count=247 9193 8015 523 43284 5518 2123 3731 8969 699 12793 13681 3382 954 1287 4635 1931 6231 26274 7635 145 1449 3465 635 2559 2024 9759 1983 5570 4285 3962
internal_value=0 0.00740645 0.0152234 -0.00429454 0.00420822 0.0188987 0.00635972 0.00767556 0.00934832 -0.00170002 -0.000599559 0.0172902 0.0191428 0.0232113 0.000861472 0.00674702 0.00270414 -0.00632623 0.0123106 0.0130569 0.0310234 0.00455266 0.0254592 0.0268792 0.0137949 -0.000987415 0.00759076 0.00600367 -0.00409761 0.00409748
internal_weight=0 5463.28 1585.8 9164 3877.49 1105.75 2742.7 2146.72 1478.85 4025.63 2760.62 976.607 722.907 410.034 1746.57 480.043 1064.2 5138.37 783.46 731.465 129.146 720.869 338.457 290.527 312.872 1134.78 159.374 695.394 1265.01 335.365
internal_count=196941 73100 21076 123841 52024 14660 36747 28732 19763 54283 37205 12964 9582 5435 23524 6416 14331 69558 10462 9763 1696 9696 4481 3846 4147 15277 2128 9301 17078 4485
is_linear=0
shrinkage=0.01


Tree=2
num_leaves=31
num_cat=0
split_feature=4 7 3 3 5 7 5 2 6 6 2 5 3 3 8 3 3 3 8 2 2 6 2 3 5 8 5 2 3 2
split_gain=1274.08 589.29 429.302 258.611 195.558 169.867 220.741 137.425 116.739 108.012 91.9323 67.0088 65.0172 61.0207 57.7158 56.998 55.9637 70.6561 54.2317 40.9231 45.5519 39.5591 36.6582 35.9435 32.8621 32.3706 30.6576 27.0501 25.7018 29.415
threshold=4.5000000000000009 2.5000000000000004 21.500000000000004 11.500000000000002 39.500000000000007 1.5000000000000002 38.500000000000007 279173.00000000006 1.0000000180025095e-35 1.0000000180025095e-35 646983.00000000012 38.500000000000007 14.500000000000002 10.500000000000002 1.0000000180025095e-35 21.500000000000004 21.500000000000004 10.500000000000002 1.0000000180025095e-35 276295.00000000006 849080.00000000012 1.0000000180025095e-35 284323.50000000006 12.500000000000002 36.500000000000007 1.0000000180025095e-35 53.500000000000007 161865.00000000003 21.500000000000004 284323.50000000006
decision_type=2 2 2 2 2 2 2 2 2 2 2 2 2 2 2 2 2 2 2 2 2 2 2 2 2 2 2 2 2 2
left_child=1 15 3 11 7 -2 16 12 13 26 -9 -3 27 -8 -10 19 17 -7 -11 -1 21 -21 -19 -15 -4 -23 -6 -5 29 -16
right_child=5 2 24 4 9 6 8 10 14 18 -12 -13 -14 23 28 -17 -18 22 -20 20 -22 25 -24 -25 -26 -27 -28 -29 -30 -31
leaf_value=-0.0021082633574732177 -0.0052316706656943181 0.0041287787973696552 0.0031726787166748947 0.0052165913251914211 0.0034528009557987255 -0.0028011864401120113 -0.0073845188651604152 0.014857341944284489 0.0022800782048906653 0.013263802030245513 0.0067906816210834414 -0.0032239999211326042 0.004906596070695695 0.0029564634746890622 -0.0039694502299900732 -0.0033629615134158158 -0.0010835398384510106 0.0013490505593876762 0.0058016599547000679 0.0005155167281419527 -0.0048993325040332658 0.0096583628979471804 0.0060649750620172093 -0.0033990462026648343 -2.4352208732272172e-05 0.0025851969024756507 -0.0031076185508494992 0.014399216541689568 -0.004191012768105816 0.0017870943331036624
leaf_weight=498.80542799085379 1851.6055026128888 296.72445354610682 468.54512895643711 44.383815549314022 474.58239307999611 160.33394479006529 397.22958302497864 791.10144547373056 552.8397599235177 186.09373514354229 175.05761116743088 212.28176811337471 394.69625882059336 90.716499790549278 139.70381999015808 722.17435752600431 454.89900617301464 250.57831724733114 211.81896989047527 430.50697064399719 96.215895779430866 108.32062174379826 499.34369520097971 3164.20850007236 1014.8768854290247 167.47332434356213 83.017831094563007 136.99269990622997 310.41038449108601 242.74909561872482
leaf_count=6716 25083 3973 6295 590 6349 2161 5389 10468 7443 2479 2335 2859 5259 1223 1885 9762 6138 3363 2831 5803 1300 1454 6673 42778 13681 2254 1120 1819 4193 3265
internal_value=0 0.00336876 0.00538811 0.00756023 0.00888442 -0.00256932 -0.00178142 0.0110899 -0.00277297 0.00531951 0.0134009 0.00105247 0.00720523 -0.00367466 -0.000125349 -0.00110975 0.00177234 0.00320506 0.00930408 0.000136844 0.00153852 0.0024226 0.00449587 -0.00322038 0.000982073 0.00538138 0.00246709 0.0121797 -0.00205187 -0.000302604
internal_weight=0 6513.67 4490.17 3006.75 2497.74 8114.62 6263.01 1542.23 4897.86 955.513 966.159 509.006 576.073 3652.15 1245.7 2023.5 1365.15 910.256 397.913 1301.32 802.517 706.301 749.922 3254.92 1483.42 275.794 557.6 181.377 692.863 382.453
internal_count=196941 87347 60058 40082 33250 109594 84511 20471 66176 12779 12803 6832 7668 49390 16786 27289 18335 12197 5310 17527 10811 9511 10036 44001 19976 3708 7469 2409 9343 5150
is_linear=0
shrinkage=0.01


Tree=3
num_leaves=31
num_cat=0
split_feature=4 7 3 3 5 7 5 2 6 6 2 3 3 5 3 3 3 8 8 2 2 2 6 3 5 8 5 2 4 3
split_gain=1247.78 573.855 415.851 249.766 187.621 167.835 216.901 131.11 108.241 104.347 87.4513 72.6006 84.177 65.5683 62.4228 56.0682 53.9051 51.8738 47.2741 43.9882 40.1236 44.6843 38.5001 35.9816 32.1573 31.2478 29.9793 25.7811 25.0529 27.2628
threshold=4.5000000000000009 2.5000000000000004 21.500000000000004 11.500000000000002 39.500000000000007 1.5000000000000002 40.500000000000007 279173.00000000006 1.0000000180025095e-35 1.0000000180025095e-35 646983.00000000012 21.500000000000004 10.500000000000002 38.500000000000007 14.500000000000002 21.500000000000004 10.500000000000002 1.0000000180025095e-35 1.0000000180025095e-35 284323.50000000006 276295.00000000006 849080.00000000012 1.0000000180025095e-35 12.500000000000002 38.500000000000007 1.0000000180025095e-35 53.500000000000007 161865.00000000003 15.500000000000002 21.500000000000004
decision_type=2 2 2 2 2 2 2 2 2 2 2 2 2 2 2 2 2 2 2 2 2 2 2 2 2 2 2 2 2 2
left_child=1 15 3 13 7 -2 11 14 16 26 -9 12 -7 -3 27 20 -8 -11 -10 -14 -1 22 -22 -18 -4 -24 -6 -5 29 -20
right_child=5 2 24 4 9 6 8 10 18 17 -12 -13 19 -15 -16 -17 23 -19 28 -21 21 -23 25 -25 -26 -27 -28 -29 -30 -31
leaf_value=-0.0020908924212432595 -0.0052022762964595657 0.0040733175667824559 0.0028200820514627059 0.0051418472797438121 0.0034083592345130515 -0.0031976601006480205 -0.007353956854782827 0.014526701937459264 0.0020374110079800986 0.012985729912543837 0.0066845176559760591 -0.0015143516733967489 0.00094981756115737441 -0.003200445217822253 0.0048375422317403485 -0.0033387900202602352 0.0031566511879329178 0.0057156927278354105 0.0019634326063226958 0.0056797768506339835 0.00051013986957917012 -0.0048704274163144448 0.0094843956899525999 -0.0035155649260845264 -0.00019545590496674797 0.0025537772873227833 -0.0030846146900579676 0.014084042702358551 -0.0044719120170469227 -0.0035119858973035423
leaf_weight=497.92439617961645 1843.4877456128597 297.75172378867865 576.14056961983442 44.577722698450089 475.9558358117938 189.51972763240337 377.42465182393789 800.96613620221615 511.28557039797306 188.16732390224934 176.05445200204849 588.09378365427256 296.21552550047636 211.70857533812523 396.31883701682091 720.1388101503253 82.284382738173008 212.84956961870193 210.60417275875807 601.36329061537981 430.69311345368624 95.821039371192455 109.19993767142296 2981.8384966477752 908.50775669515133 167.83657402545214 82.801672525703907 138.64929650723934 255.40164847671986 159.63542649149895
leaf_count=6716 25083 3973 7728 590 6349 2562 5153 10468 6872 2479 2335 7949 3975 2859 5259 9762 1107 2831 2832 8009 5803 1300 1454 40432 12248 2254 1120 1819 3457 2163
internal_value=0 0.00332553 0.00531006 0.00743723 0.00873025 -0.00254919 -0.0017663 0.0108774 -0.00289315 0.00524278 0.0131187 0.00131051 0.00284329 0.00104086 0.00709032 -0.0010997 -0.00377698 0.00913945 -0.000213352 0.00412438 0.000135408 0.00152117 0.00239361 -0.00333476 0.000971402 0.00530368 0.00243722 0.0119358 -0.00206071 -0.000383887
internal_weight=0 6532.06 4510.45 3025.8 2516.34 8097.15 6253.67 1556.57 4578.47 959.774 977.021 1675.19 1087.1 509.46 579.546 2021.61 3441.55 401.017 1136.93 897.579 1301.48 803.551 707.73 3064.12 1484.65 277.037 558.758 183.227 625.641 370.24
internal_count=196941 87347 60058 40082 33250 109594 84511 20471 62016 12779 12803 22495 14546 6832 7668 27289 46692 5310 15324 11984 17527 10811 9511 41539 19976 3708 7469 2409 8452 4995
is_linear=0
shrinkage=0.01


Tree=4
num_leaves=31
num_cat=0
split_feature=10 10 4 10 4 10 7 4 3 2 3 2 7 3 10 7 5 3 2 5 10 4 3 3 5 3 2 2 3 3
split_gain=4547.33 1293.85 517.869 475.43 409.044 218.851 142.623 139.944 131.758 163.13 87.2085 132.458 86.9362 73.7287 68.9137 63.9287 62.8427 62.2768 55.0275 53.6849 50.2856 48.1138 42.3539 57.2881 40.2236 39.6138 39.0835 36.4466 36.5994 35.7895
threshold=0.35062700000000008 0.20782750000000003 6.5000000000000009 0.46170800000000006 13.500000000000002 0.063623500000000013 1.5000000000000002 5.5000000000000009 21.500000000000004 305977.50000000006 21.500000000000004 202632.50000000003 2.5000000000000004 10.500000000000002 0.56790050000000003 1.5000000000000002 38.500000000000007 11.500000000000002 668394.00000000012 52.500000000000007 0.17298500000000003 7.5000000000000009 22.500000000000004 10.500000000000002 53.500000000000007 11.500000000000002 180294.50000000003 258738.50000000003 12.500000000000002 11.500000000000002
decision_type=2 2 2 2 2 2 2 2 2 2 2 2 2 2 2 2 2 2 2 2 2 2 2 2 2 2 2 2 2 2
left_child=1 2 5 7 6 25 -3 12 9 19 11 -7 -2 -4 21 -13 -15 -11 -19 26 29 -5 23 -14 -22 -1 -8 -18 -29 -17
right_child=3 4 13 14 -6 10 8 -9 -10 17 -12 15 22 16 -16 20 27 18 -20 -21 24 -23 -24 -25 -26 -27 -28 28 -30 -31
leaf_value=0.016701819904594403 -0.0029196427658112777 0.001729883863606751 -0.0024347770138685287 -0.0042488931309660029 -0.001374890646029111 0.010933343915550646 0.0032127515064816372 -0.0035398979460968417 0.0036360504190186154 0.0014408062518875772 0.011936295669519901 0.01333204745731089 -0.0029744078833219756 0.016123044878910274 -0.0077878971290849062 0.015192941739205709 0.00082427597949859515 0.013990043853160706 0.0074667202527791531 -0.0034476896163136519 0.019583104766558362 -0.0067327665815702358 -0.00087242588670594762 0.0039104958766504397 -0.0035725376841997257 0.033661738009310375 0.008182091163138238 0.029205970591864184 0.0077681101669351852 0.026951173335944673
leaf_weight=17.202685587108135 619.31130003929138 610.35528245568275 69.327251389622688 1736.9614463970065 1001.8153686746955 154.93312740325928 269.03245131671429 2022.6936157867312 721.39780886471272 54.773637890815735 231.43251157552004 82.734062798321247 142.37080261856318 90.064833827316761 1920.5375374630094 31.211809128522873 82.385893784463406 608.09464529156685 169.03480716794729 62.576582878828049 150.59694850444794 1444.2337614223361 461.31731855869293 774.24110516905785 7.5145663544535628 109.2728955745697 399.54071884602308 8.3523161336779577 327.2143874168396 249.53750495612621
leaf_count=225 8395 8230 939 23535 13572 2018 3574 27493 9664 735 3056 1090 1922 1175 26274 405 1099 7915 2227 843 1937 19749 6227 10246 100 1378 5264 110 4363 3181
internal_value=0 0.00724736 0.0147842 -0.00425935 0.00412857 0.0190218 0.0060349 -0.00168574 0.00718292 0.00881672 0.0172929 0.0191179 0.000189544 0.0071829 -0.00628626 0.0215394 0.00850523 0.0118503 0.0125776 0.00535823 0.0230753 -0.00537812 0.0015906 0.00283566 0.018451 0.0313945 0.00618992 0.00685169 0.0083166 0.0256618
internal_weight=0 5508.4 1611.78 9121.67 3896.62 1034.44 2894.81 4019.93 2284.45 1563.05 907.961 676.528 1997.24 577.345 5101.73 521.595 508.017 831.903 777.129 731.15 438.861 3181.2 1377.93 916.612 158.112 126.476 668.573 417.953 335.567 280.749
internal_count=196941 73100 21076 123841 52024 13390 38452 54283 30222 20558 11787 8731 26790 7686 69558 6713 6747 10877 10142 9681 5623 43284 18395 12168 2037 1603 8838 5572 4473 3586
is_linear=0
shrinkage=0.01


Tree=5
num_leaves=31
num_cat=0
split_feature=10 10 4 10 4 10 7 4 5 5 10 2 3 7 3 2 4 2 2 3 2 7 2 2 4 10 6 6 10 10
split_gain=4442.95 1318.43 482.315 383.538 382.475 168.604 137.857 124.099 106.789 100.228 88.9006 68.6138 87.8856 68.4597 64.1289 90.7685 62.5628 55.4056 52.5867 51.2521 74.8132 45.9262 40.9076 44.5172 39.6887 36.3045 34.7167 32.0474 30.9724 30.6409
threshold=0.36170400000000008 0.22282400000000002 4.5000000000000009 0.43811800000000006 13.500000000000002 0.10389350000000001 2.5000000000000004 7.5000000000000009 46.500000000000007 49.500000000000007 0.56790050000000003 188469.00000000003 21.500000000000004 1.5000000000000002 21.500000000000004 312804.00000000006 7.5000000000000009 267219.00000000006 1078330.5000000002 21.500000000000004 314077.50000000006 1.5000000000000002 273672.00000000006 605443.50000000012 3.5000000000000004 0.13906400000000005 1.0000000180025095e-35 1.0000000180025095e-35 0.32933650000000009 0.047265000000000008
decision_type=2 2 2 2 2 2 2 2 2 2 2 2 2 2 2 2 2 2 2 2 2 2 2 2 2 2 2 2 2 2
left_child=1 2 5 7 6 18 -3 13 14 25 16 -7 21 -2 15 -8 -5 -11 22 20 -15 -13 -1 -24 28 -4 -10 -19 -17 -29
right_child=3 4 9 10 -6 11 8 -9 26 17 -12 12 -14 19 -16 24 -18 27 -20 -21 -22 -23 23 -25 -26 -27 -28 29 -30 -31
leaf_value=0.020648541650185575 -0.0031986796521480637 0.0015831889491864826 0.015676103527267102 -0.0040237507365301125 -0.0018730347759100853 0.0090370987989304846 0.0061265717297569605 -0.0040606643208139738 0.00055751385108192557 -0.00081861362759114414 -0.0077750081066165905 0.012308126921521882 0.011463512148835082 -0.00031790077060810747 0.004640227247469559 0.015681030413978076 -0.0065216920652890111 0.0049623453639527281 0.001924713524880995 -0.0012989219705201306 0.005829464975872856 0.020756741445332173 0.033165101847816028 0.020742959507974237 0.0086864342715830406 0.0092612532236613365 0.0057432735917943836 0.034763911731800094 0.0085971424023729287 0.010478997034676186
leaf_weight=88.44445725530386 424.41350394487381 771.40782643854618 140.7842385545373 2245.3489884361625 1025.2519846186042 130.03368383646011 552.80342765897512 1111.7160679772496 322.8477316647768 130.7076480537653 1903.6940985098481 80.329045198857784 203.17243544757366 367.61429848521948 463.34974598884583 264.71570878475904 1838.7599060982466 239.42811363935471 9.7241336777806264 432.90292995423079 425.31566829234362 405.76452733576298 103.87729492038488 43.703100696206093 251.75907385349274 257.55540537089109 217.86457765847445 5.8021530881524077 85.284409806132317 78.346161723136902
leaf_count=1114 5775 10368 1818 30463 13914 1687 7267 15166 4313 1760 26215 1052 2666 4918 6186 3394 25246 3197 125 5858 5620 5129 1286 553 3277 3373 2889 76 1100 1034
internal_value=0 0.00668114 0.0134866 -0.00456292 0.00338032 0.0179774 0.00522024 -0.00147782 0.00651766 0.00787106 -0.00598513 0.0157821 0.0170473 0.00025913 0.00780509 0.00907088 -0.00514961 0.00464207 0.0252762 0.00146039 0.00297315 0.0193709 0.0262171 0.0295204 0.0117673 0.011541 0.00265621 0.00686335 0.0139692 0.0122129
internal_weight=0 5872.96 1917.67 8749.77 3955.28 1065.05 2930.03 2761.96 2158.62 852.624 5987.8 819.3 689.266 1650.25 1617.91 1154.56 4084.11 454.284 245.749 1225.83 792.93 486.094 236.025 147.58 601.759 398.34 540.712 323.576 350 84.1483
internal_count=196839 77578 24870 119261 52708 13612 38794 37337 28426 11258 81924 10534 8847 22171 21224 15038 55709 6067 3078 16396 10538 6181 2953 1839 7771 5191 7202 4307 4494 1110
is_linear=0
shrinkage=0.01


Tree=6
num_leaves=31
num_cat=0
split_feature=4 7 3 2 5 7 5 6 6 2 5 3 3 8 3 3 8 6 2 2 2 6 8 6 6 8 3 5 5 3
split_gain=1198.44 550.807 361.169 227.741 179.756 171.921 216.253 96.394 90.4942 71.037 69.9507 61.9333 61.5858 56.2364 53.2832 49.8422 38.5682 37.8799 37.0137 36.3299 34.9719 33.436 45.226 33.2947 31.952 44.1354 31.7507 29.117 28.6355 28.5266
threshold=4.5000000000000009 2.5000000000000004 21.500000000000004 284323.50000000006 39.500000000000007 1.5000000000000002 40.500000000000007 1.0000000180025095e-35 1.0000000180025095e-35 640269.00000000012 38.500000000000007 21.500000000000004 10.500000000000002 1.0000000180025095e-35 10.500000000000002 21.500000000000004 1.0000000180025095e-35 1.0000000180025095e-35 315333.00000000006 188469.00000000003 544495.50000000012 1.0000000180025095e-35 1.0000000180025095e-35 1.0000000180025095e-35 1.0000000180025095e-35 1.0000000180025095e-35 19.500000000000004 36.500000000000007 30.500000000000004 12.500000000000002
decision_type=2 2 2 2 2 2 2 2 2 2 2 2 2 2 2 2 2 2 2 2 2 2 2 2 2 2 2 2 2 2
left_child=1 15 3 10 9 -2 11 14 -6 20 19 12 -7 -10 -8 23 -9 -12 -14 -3 -5 27 -23 -1 -21 -26 -22 -4 -20 -16
right_child=5 2 21 4 8 6 7 16 13 -11 17 -13 18 -15 29 -17 -18 -19 28 24 26 22 -24 -25 25 -27 -28 -29 -30 -31
leaf_value=-0.0013184158059461259 -0.0053352293164064856 0.0033783141561746621 0.0026047292056908108 0.012133523769488248 0.0022362008680365361 -0.0026358933081651616 -0.0073911068479781943 0.0015780274469875846 0.014023190441897411 0.0063940039305448761 -0.0014423921696304313 -0.0013472865915405228 0.0013156888613565408 0.0055587185821330942 0.0024365309640870039 -0.0033418637178806564 -0.0021169416022714291 0.004249627085537026 0.0095281901141416499 0.0051433140413870036 0.012501183370074904 0.0063428709756800537 0.00054315578073476658 0.0019669029155180043 0.015413505958233225 0.0055529243528063101 0.021294682832539692 -0.0013140499197791639 0.0040984387762573174 -0.0035256991570260677
leaf_weight=805.09470009058714 1826.2858565747738 386.78190061450005 266.42181078344584 695.76868472993374 397.08821176737547 179.09943029284477 371.31160309165716 515.67987325787544 145.28841283917427 192.69035851955414 294.85111739486456 586.39543452858925 364.21610145270824 177.03952680528164 81.474117897450924 717.03621780127287 623.13777440041304 193.05862398445606 132.84166705608368 231.98054976016283 80.833776392042637 228.36634660512209 332.11744910478592 499.94402493536472 98.148082211613655 88.359436623752117 93.199169956147671 656.17557924240828 388.44777578860521 2972.7355090379715
leaf_count=10876 25117 5081 3556 8860 5264 2430 5134 6932 1874 2515 3941 7956 4864 2326 1096 9781 8459 2549 1740 3027 1029 3050 4455 6702 1269 1153 1180 8856 5147 40620
internal_value=0 0.0031182 0.00504542 0.00700053 0.00932082 -0.00263642 -0.0018426 -0.00296478 0.00544815 0.0119383 0.00379948 0.00125671 0.00269572 0.00938957 -0.00380288 -0.00122367 -0.000439394 0.000799607 0.00377972 0.00561089 0.0131608 0.000988212 0.00291514 -5.602e-05 0.00766236 0.0107688 0.0172391 -0.00017699 0.00549171 -0.00336501
internal_weight=0 6580.24 4558.17 3075.09 1781.91 8041.63 6215.34 4564.34 719.416 1062.49 1293.18 1651 1064.6 322.328 3425.52 2022.07 1138.82 487.91 885.506 805.27 869.802 1483.08 560.484 1305.04 418.488 186.508 174.033 922.597 521.289 3054.21
internal_count=196839 87344 59985 40068 23048 109495 84378 62241 9464 13584 17020 22137 14181 4200 46850 27359 15391 6490 11751 10530 11069 19917 7505 17578 5449 2422 2209 12412 6887 41716
is_linear=0
shrinkage=0.01


Tree=7
num_leaves=31
num_cat=0
split_feature=10 10 4 10 4 10 7 4 5 5 10 2 3 7 4 3 2 2 7 3 2 3 3 3 10 10 6 6 4 10
split_gain=4332.25 1260.75 443.748 378.731 366.402 157.295 129.372 119.901 100.394 95.2908 88.3377 70.8142 96.8329 65.5905 61.0118 58.9514 84.1645 53.8549 49.4917 48.6866 71.2776 37.574 35.5846 40.2415 34.4504 34.0249 32.9408 30.3833 29.0834 28.7026
threshold=0.36170400000000008 0.22282400000000002 4.5000000000000009 0.43811800000000006 13.500000000000002 0.063623500000000013 2.5000000000000004 7.5000000000000009 46.500000000000007 49.500000000000007 0.56790050000000003 188469.00000000003 21.500000000000004 1.5000000000000002 7.5000000000000009 21.500000000000004 312804.00000000006 267219.00000000006 1.5000000000000002 21.500000000000004 314077.50000000006 11.500000000000002 11.500000000000002 14.500000000000002 0.13906400000000005 1.0000000180025095e-35 1.0000000180025095e-35 1.0000000180025095e-35 3.5000000000000004 0.31122950000000005
decision_type=2 2 2 2 2 2 2 2 2 2 2 2 2 2 2 2 2 2 2 2 2 2 2 2 2 2 2 2 2 2
left_child=1 2 5 7 6 25 -3 13 15 24 14 -7 18 -2 -5 16 -8 -11 -13 20 -15 -18 -20 -24 -4 -1 -10 -19 29 -23
right_child=3 4 9 10 -6 11 8 -9 26 17 -12 12 -14 19 -16 -17 21 27 22 -21 -22 28 23 -25 -26 -27 -28 -29 -30 -31
leaf_value=0.003761259992478067 -0.0031589288200483344 0.0015894082807580651 0.015331699985157843 -0.0040042546897633554 -0.0018302551094609193 0.0097649222519201988 0.0059769664352492969 -0.0040148642392580846 0.00057081323040346257 -0.00077759639939220873 -0.0077421726576125758 0.012604462003370093 0.011803625563472725 -0.00034241501519923688 -0.0064781273097274999 0.0045711369123257427 0.0010946502003291671 0.0049446839294030589 0.01327036470497189 -0.0012874666667182905 0.0056395514596944678 0.016201093637189391 0.026467182499846888 0.019663345116014242 0.0091123740338858675 0.029713294722628548 0.0056129557880552896 0.011981895285334634 0.0092562494066549678 0.010033764016787164
leaf_weight=5.7599386945366851 422.48105983436108 771.05023624002934 142.55387756228447 2239.7744504064322 1020.8939553052187 152.91511868685484 557.40048878639936 1105.2424898669124 322.50359814614058 130.22572600841522 1888.4917053431273 92.020794436335564 235.66494137048721 368.38727204501629 1823.889747671783 465.2862445935607 34.599718935787678 239.67820873856544 59.240036368370056 432.4351075142622 429.8924330547452 211.14226984232664 132.56394888460636 296.76297131925821 259.36911178380251 110.37653889507055 219.47737187147141 84.958763413131237 239.51239842176437 126.52455197274685
leaf_count=70 5775 10368 1818 30463 13914 1960 7267 15166 4313 1760 26215 1190 3057 4918 25246 6186 457 3197 746 5858 5620 2641 1623 3641 3373 1325 2889 1110 3076 1597
internal_value=0 0.00656185 0.0131647 -0.00453018 0.00332921 0.0174156 0.00511793 -0.00146477 0.00636568 0.00777429 -0.00594995 0.0160858 0.0172638 0.000237072 -0.00511583 0.00760405 0.00880676 0.00462082 0.0194716 0.00140692 0.00287275 0.0113768 0.0207547 0.0217758 0.0113307 0.0284692 0.00262187 0.00680175 0.0119846 0.013905
internal_weight=0 5910.48 1942.09 8710.59 3968.39 1085.3 2947.5 2758.44 2176.45 856.786 5952.16 969.168 816.253 1653.2 4063.66 1634.47 1169.18 454.863 580.588 1230.71 798.28 611.779 488.567 429.327 401.923 116.136 541.981 324.637 577.179 337.667
internal_count=196839 77578 24870 119261 52708 13612 38794 37337 28426 11258 81924 12217 10257 22171 55709 21224 15038 6067 7200 16396 10538 7771 6010 5264 5191 1395 7202 4307 7314 4238
is_linear=0
shrinkage=0.01


Tree=8
num_leaves=31
num_cat=0
split_feature=10 10 4 10 4 10 7 4 5 10 2 2 2 7 4 3 2 3 2 3 3 2 3 7 2 7 6 1 4 10
split_gain=4239.17 1212.21 422.277 374.96 357.145 187.915 125.422 118.032 97.0348 87.9761 69.0117 66.9564 66.3031 64.365 60.5963 56.771 81.975 51.7813 48.6594 76.621 47.5971 69.3861 38.9388 38.889 35.2181 32.7624 32.0436 30.9436 30.0354 27.5995
threshold=0.36170400000000008 0.22282400000000002 7.5000000000000009 0.43811800000000006 13.500000000000002 0.13265350000000001 2.5000000000000004 7.5000000000000009 46.500000000000007 0.56790050000000003 659619.00000000012 323424.00000000006 270022.50000000006 1.5000000000000002 7.5000000000000009 21.500000000000004 202632.50000000003 21.500000000000004 193536.00000000003 21.500000000000004 21.500000000000004 314077.50000000006 21.500000000000004 1.5000000000000002 284323.50000000006 1.5000000000000002 1.0000000180025095e-35 161390.00000000003 3.5000000000000004 0.095508000000000023
decision_type=2 2 2 2 2 2 2 2 2 2 2 2 2 2 2 2 2 2 2 2 2 2 2 2 2 2 2 2 2 2
left_child=1 2 5 7 6 10 -3 13 15 14 12 -4 -1 -2 -5 16 -8 25 -7 23 21 -15 27 -20 -25 -14 -10 -13 -18 -27
right_child=3 4 11 9 -6 18 8 -9 26 -11 -12 22 17 20 -16 -17 28 -19 19 -21 -22 -23 -24 24 -26 29 -28 -29 -30 -31
leaf_value=0.018088981310479001 -0.0031357036254611808 0.0015714091186036481 0.0019367209588047806 -0.0039776428891602177 -0.0018147566312385517 0.007578760042182775 0.0035651670351981649 -0.0039882428982197585 0.0005648337131696461 -0.0077152682952785576 0.013559447430615348 0.01626369185282469 0.017393826160056566 -0.00033908854938609351 -0.0064486709151107928 0.0045080822952105557 0.011547045664193479 0.015125745675904087 0.01005153527462415 0.0093248349100319566 -0.0012759772474630251 0.0055568705604985263 0.0061420345762052391 0.012963764066438911 0.019558183189343065 0.034255107582832622 0.0055307482257454469 0.0068309281233146371 0.0078209542407510976 0.025436678385068533
leaf_weight=159.08869753032923 421.35980273038149 772.07791122049093 238.11440780758858 2232.2495956048369 1019.3243898302317 130.993657797575 251.79837968200445 1101.5125582590699 322.65773932635784 1876.1881911531091 98.482404194772243 93.99192787706852 23.799009300768375 368.28172834217548 1813.9486431851983 467.06726600974798 548.60248938202858 34.310442835092545 82.70519507676363 220.50093898177147 431.96793961524963 431.91566633433104 241.39098850637674 118.46374159306288 301.63133436441422 91.938914209604263 220.50700433552265 58.871202573180199 377.32219626754522 68.983412824571133
leaf_count=1955 5775 10368 3166 30463 13914 1678 3292 15166 4313 26215 1231 1220 296 4918 25246 6186 6895 430 1066 2847 5858 5620 3173 1474 3676 1073 2889 764 4851 821
internal_value=0 0.00646084 0.0128918 -0.00450217 0.00328678 0.016091 0.00504525 -0.001452 0.0062688 -0.00592024 0.0211395 0.00615083 0.0231005 0.000234516 -0.00508666 0.00748061 0.00865523 0.0267176 0.0132686 0.0142922 0.00139108 0.00283707 0.00868331 0.0164606 0.0177105 0.0288437 0.00259004 0.0126636 0.010034 0.0305059
internal_weight=0 5942.62 1963.27 8677.42 3979.36 1330.9 2960.03 2755.04 2187.96 5922.39 476.603 632.369 378.12 1653.53 4046.2 1644.79 1177.72 219.032 854.295 723.301 1232.17 800.197 394.254 502.8 420.095 184.721 543.165 152.863 925.925 160.922
internal_count=196839 77578 24870 119261 52708 16547 38794 37337 28426 81924 5806 8323 4575 22171 55709 21224 15038 2620 10741 9063 16396 10538 5157 6216 5150 2190 7202 1984 11746 1894
is_linear=0
shrinkage=0.01


Tree=9
num_leaves=31
num_cat=0
split_feature=10 10 4 10 4 10 7 4 5 10 5 7 4 2 3 2 2 3 2 2 3 2 5 7 6 10 5 3 3 2
split_gain=4148.4 1166.07 403.671 371.208 348.151 140.387 121.776 116.189 88.9499 87.612 87.2578 63.1622 60.1804 56.5757 55.591 85.9155 54.5319 62.6017 53.8666 51.1094 46.5338 67.5518 43.0862 37.3575 35.5343 31.7515 30.486 29.1173 31.7425 37.4457
threshold=0.36170400000000008 0.22282400000000002 4.5000000000000009 0.43811800000000006 13.500000000000002 0.13265350000000001 1.5000000000000002 7.5000000000000009 49.500000000000007 0.56790050000000003 46.500000000000007 1.5000000000000002 7.5000000000000009 674921.00000000012 21.500000000000004 224142.50000000003 193536.00000000003 30.500000000000004 273672.00000000006 267219.00000000006 21.500000000000004 314077.50000000006 49.500000000000007 2.5000000000000004 1.0000000180025095e-35 0.13906400000000005 54.500000000000007 11.500000000000002 12.500000000000002 314534.00000000006
decision_type=2 2 2 2 2 2 2 2 2 2 2 2 2 2 2 2 2 2 2 2 2 2 2 2 2 2 2 2 2 2
left_child=1 2 5 7 6 13 -3 11 25 12 14 -2 -5 18 15 -8 -7 23 -1 -10 21 -13 -20 -18 -12 -4 -25 -17 -29 -30
right_child=3 4 8 9 -6 16 10 -9 19 -11 24 20 -14 -15 -16 27 17 -19 22 -21 -22 -23 -24 26 -26 -27 -28 28 29 -31
leaf_value=0.018327914323547911 -0.0031125924229605489 0.0010754961544839502 0.014696695404402585 -0.0039511284286723189 -0.0017993666365725572 0.0074613941778076736 0.0034758042385591159 -0.0039617180363218573 -0.0007966275886293775 -0.0076883478236864436 0.0004298082868902957 -0.00033579350164552566 -0.0064192274859389484 0.01348429156717067 0.0042685728006271028 0.0046747036885974825 0.011109027999510806 0.0056332350717217816 0.02837591522475158 0.006568802243072101 -0.0012645787721891498 0.0054758070057583331 0.012461679851612067 0.018241597419081507 0.0056039424037373489 0.0087831541596841822 0.0044871822333288191 0.01539374715473393 0.0059080673668219386 0.010900418631622529
leaf_weight=139.2560151591897 420.24912574142218 633.60780843347311 145.929105296731 2224.7946160435677 1017.7699946388602 113.28329090774059 297.09797075390816 1097.8172446265817 130.44795732200146 1863.9912655875087 328.26150961965322 368.17723163217306 1804.0956638231874 77.46289099752903 503.36227279901505 108.73532317578793 115.8418288230896 63.673733502626419 168.76433362066746 328.71104790270329 431.50532545149326 433.91646873950958 20.231947503983974 399.26481869071722 225.52119485288858 263.4672010615468 17.808377802371979 108.34248925745487 213.38725118339062 554.11953976005316
leaf_count=1678 5775 8525 1818 30463 13914 1438 3875 15166 1760 26215 4386 4918 25246 955 6649 1418 1467 814 1955 4307 5858 5620 242 4839 2942 3373 224 1359 2720 6920
internal_value=0 0.00636204 0.012628 -0.00447426 0.003245 0.0166116 0.00497389 -0.00143933 0.00750565 -0.00589056 0.00602786 0.000231989 -0.00505756 0.0213272 0.00710528 0.00821545 0.0139095 0.0151255 0.0231628 0.00446538 0.00137544 0.00280193 0.0266988 0.0162503 0.00254594 0.0109032 0.0176663 0.00964056 0.0102514 0.00951893
internal_weight=0 5974.35 1984.14 8644.55 3990.21 1115.59 2972.44 2751.67 868.555 5892.88 2338.83 1653.85 4028.89 405.715 1785.04 1281.68 709.872 596.589 328.252 459.159 1233.6 802.094 188.996 532.915 553.783 409.396 417.073 984.585 875.849 767.507
internal_count=196839 77578 24870 119261 52708 13612 38794 37337 11258 81924 30269 22171 55709 4830 22941 16292 8782 7344 3875 6067 16396 10538 2197 6530 7328 5191 5063 12417 10999 9640
is_linear=0
shrinkage=0.01


Tree=10
num_leaves=31
num_cat=0
split_feature=4 7 3 2 7 5 5 6 6 3 3 5 3 3 2 2 8 3 8 2 2 5 8 6 6 6 5 6 8 3
split_gain=1123.46 489.59 341.476 249.341 156.336 196.786 151.191 100.44 76.8887 73.2677 73.6193 65.8171 56.1398 53.3366 52.6448 50.2853 45.0126 42.5705 42.4635 41.1193 37.564 33.1502 32.534 41.3513 29.979 29.1843 28.8065 28.7455 30.936 28.378
threshold=4.5000000000000009 2.5000000000000004 21.500000000000004 279173.00000000006 1.5000000000000002 40.500000000000007 39.500000000000007 1.0000000180025095e-35 1.0000000180025095e-35 21.500000000000004 10.500000000000002 38.500000000000007 11.500000000000002 11.500000000000002 646983.00000000012 808866.00000000012 1.0000000180025095e-35 12.500000000000002 1.0000000180025095e-35 540180.00000000012 284323.50000000006 37.500000000000007 1.0000000180025095e-35 1.0000000180025095e-35 1.0000000180025095e-35 1.0000000180025095e-35 52.500000000000007 1.0000000180025095e-35 1.0000000180025095e-35 19.500000000000004
decision_type=2 2 2 2 2 2 2 2 2 2 2 2 2 2 2 2 2 2 2 2 2 2 2 2 2 2 2 2 2 2
left_child=1 15 3 11 -2 9 14 13 26 10 -6 22 -10 -7 19 24 -9 -15 -14 -5 -12 -4 23 -3 -1 -13 -8 -23 -29 -21
right_child=4 2 21 6 5 7 8 16 12 -11 20 25 18 17 -16 -17 -18 -19 -20 29 -22 27 -24 -25 -26 -27 -28 28 -30 -31
leaf_value=-0.00121667542521044 -0.0051545765936121465 0.0044379403240569718 0.0028548118166852893 0.011266663551779538 -0.0030631156701661734 -0.0073479946466590449 0.0038760466358088931 0.0018816608245236202 -0.0036014204958962947 -0.0017398268718628225 0.00089205322819439412 -0.0016065026627215446 0.014568746669460309 0.004084128142930122 0.0065789254872576589 -0.0036627937070665495 -0.0021226207273149097 -0.0035071350824151721 0.0068849326429920171 0.012244523580768352 0.0052491121187773172 -0.0015596582638058099 0.0020556092826683292 0.010251598684758624 0.0017710129843590797 0.0033872049421111656 -0.0028852855097150033 0.0057754031914933413 -0.00033608199228338096 0.020239177045755632
leaf_weight=926.32015381753445 1804.3666180148721 369.95472925901413 528.23008761554956 725.18678206205368 186.39953111857176 371.12675683200359 332.94616563618183 510.47157394140959 30.836930751800537 583.39784858375788 297.51566132903099 292.40510070323944 137.25415744632483 75.180278152227402 194.36931252479553 559.44288190454245 622.77912639081478 2925.6510262414813 159.12968771159649 87.175141461193562 609.12900233268738 615.66265057772398 255.39256186783314 187.05465256422758 526.51312208175659 194.70189456641674 76.857711911201477 135.2603709474206 210.04787560552359 101.94685231149197
leaf_count=12567 25171 4771 6995 8941 2538 5208 4348 6870 409 7955 3977 3901 1713 1013 2484 7700 8506 40389 2050 1073 7967 8335 3306 2378 7047 2539 1029 1795 2826 1236
internal_value=0 0.00300175 0.00479033 0.00665838 -0.00256335 -0.00180619 0.00902249 -0.00289488 0.00549903 0.00111654 0.00264566 0.00329677 0.00911972 -0.00376062 0.0113603 -0.001115 -0.000314484 -0.00331528 0.0104601 0.0123713 0.00382486 0.000841635 0.00503991 0.00639926 -0.000130483 0.000379271 0.00259577 -0.000259772 0.00204336 0.0165805
internal_weight=0 6646.69 4634.41 3145.21 7986.02 6181.65 1845.7 4505.21 737.025 1676.44 1093.04 1299.51 327.221 3371.96 1108.68 2012.28 1133.25 3000.83 296.384 914.309 906.645 1489.2 812.402 557.009 1452.83 487.107 409.804 960.971 345.308 189.122
internal_count=197037 87443 60129 40178 109594 84423 23283 61986 9549 22437 14482 16895 4172 46610 13734 27314 15376 41402 3763 11250 11944 19951 10455 7149 19614 6440 5377 12956 4621 2309
is_linear=0
shrinkage=0.01


Tree=11
num_leaves=31
num_cat=0
split_feature=10 10 10 4 4 10 3 2 4 3 7 7 10 3 2 3 4 5 2 3 10 3 2 2 5 5 7 3 5 5
split_gain=3982.6 1046.64 391.169 365.286 336.296 149.748 134.48 159.099 113.384 90.6949 71.6825 66.4552 65.6842 56.5923 53.3204 90.5791 52.3102 50.3807 44.7753 44.3166 41.4513 41.2372 73.1576 36.5813 36.3598 35.3867 33.8219 32.9716 32.6881 32.178
threshold=0.36170400000000008 0.20782750000000003 0.46170800000000006 7.5000000000000009 10.500000000000002 0.063623500000000013 21.500000000000004 305977.50000000006 6.5000000000000009 11.500000000000002 1.5000000000000002 2.5000000000000004 0.61189900000000008 10.500000000000002 270022.50000000006 21.500000000000004 4.5000000000000009 34.500000000000007 849080.00000000012 10.500000000000002 0.26067550000000006 21.500000000000004 314077.50000000006 1078330.5000000002 52.500000000000007 51.500000000000007 2.5000000000000004 11.500000000000002 50.500000000000007 26.500000000000004
decision_type=2 2 2 2 2 2 2 2 2 2 2 2 2 2 2 2 2 2 2 2 2 2 2 2 2 2 2 2 2 2
left_child=1 3 8 5 6 23 7 24 11 -9 -11 -2 16 -5 -7 18 -4 -15 25 -6 -12 22 -13 27 26 29 -3 -1 -21 -16
right_child=2 4 12 13 19 14 -8 9 -10 10 20 21 -14 17 15 -17 -18 -19 -20 28 -22 -23 -24 -25 -26 -27 -28 -29 -30 -31
leaf_value=0.013771743851066959 -0.0030535617124772558 0.00081320893611725278 -0.0041230036648728782 -0.0029048831945805119 -0.0060835434446346462 0.011181986524659269 0.0022654141656950825 -0.00067648853180872189 -0.0038569552388762027 0.005010614088608179 0.014818407895656376 -0.00092374061024875533 -0.0082664178235898386 0.017533132005967064 0.014886360850586458 0.011246981339860089 -0.0065356996164380437 0.0061397156491174052 0.003670423956310901 0.0025036273980401902 0.009932740727160513 -0.0014185413889650457 0.0047881763021845819 0.0010180408553131079 -0.0030794107765254341 0.0089717792246498812 0.0054242774274142983 0.028591841247038754 -0.0012290050140606168 0.021853636602815158
leaf_weight=18.758026920258999 613.23535437881947 212.37783017754555 1519.9752426967025 62.1221639290452 139.49165110290051 316.45404044538736 958.50360889732838 83.595436245203018 1636.0305462181568 223.63297447562218 256.32722292840481 411.88141193240881 1197.5341186448932 43.325635582208633 90.774287573993206 245.7008033618331 2256.4009386822581 430.58978258818388 19.430480852723122 335.75533577799797 587.25407859683037 494.69515588134527 488.97474107891321 6.2362900450825682 71.098405972123146 31.296974875032902 667.24961410462856 120.06639455258846 778.06862341612577 315.04890741407871
leaf_count=224 8441 2837 20922 842 1931 3880 12708 1100 22745 2992 3136 5490 16998 537 1052 3089 31815 5594 236 4503 7298 6727 6296 75 952 380 8548 1353 10653 3683
internal_value=0 0.00621079 -0.00439298 0.0128578 0.00359017 0.0160066 0.00537735 0.00679432 -0.00190231 0.00929814 0.0100841 -0.000307883 -0.00621711 0.00601241 0.0146415 0.0161933 -0.00556592 0.00719186 0.0188443 -0.000769357 0.0114232 0.000895044 0.00217107 0.0255589 0.0037583 0.0195073 0.00431666 0.0266254 -9.9337e-05 0.0203075
internal_weight=0 6013.16 8618.73 1699.8 4313.35 1163.77 3060.04 2101.54 3644.82 1150.81 1067.21 2008.79 4973.91 536.038 1018.71 702.251 3776.38 473.915 456.551 1253.32 843.581 1395.55 900.856 145.061 950.726 437.12 879.627 138.824 1113.82 405.823
internal_count=197037 77603 119434 20945 56658 13972 39571 26863 49699 14526 13426 26954 69735 6973 12320 8440 52737 6131 5351 17087 10434 18513 11786 1652 12337 5115 11385 1577 15156 4735
is_linear=0
shrinkage=0.01


Tree=12
num_leaves=31
num_cat=0
split_feature=10 10 10 4 4 10 3 3 4 7 10 7 6 5 3 4 5 6 5 5 3 3 3 3 3 10 5 3 6 3
split_gain=3897.79 1006.94 387.481 348.005 327.369 140.264 130.227 133.49 111.696 86.6764 65.4911 65.2664 58.4698 67.721 55.0012 51.9853 48.112 47.1177 77.4512 47.7572 43.6923 40.8557 40.3598 39.0101 35.4028 35.3412 32.0061 31.5984 30.223 29.2506
threshold=0.36170400000000008 0.20782750000000003 0.46170800000000006 7.5000000000000009 10.500000000000002 0.063623500000000013 21.500000000000004 11.500000000000002 6.5000000000000009 2.5000000000000004 0.61189900000000008 2.5000000000000004 1.0000000180025095e-35 40.500000000000007 10.500000000000002 4.5000000000000009 34.500000000000007 1.0000000180025095e-35 44.500000000000007 26.500000000000004 10.500000000000002 30.500000000000004 21.500000000000004 11.500000000000002 11.500000000000002 0.27290200000000003 50.500000000000007 12.500000000000002 1.0000000180025095e-35 14.500000000000002
decision_type=2 2 2 2 2 2 2 2 2 2 2 2 2 2 2 2 2 2 2 2 2 2 2 2 2 2 2 2 2 2
left_child=1 3 8 5 6 28 7 -3 11 -9 15 -2 13 -11 -5 -4 -16 18 24 -19 -6 -21 23 -13 -7 -14 -22 -15 -1 -26
right_child=2 4 10 14 20 17 -8 9 -10 12 -12 22 25 27 16 -17 -18 19 -20 21 26 -23 -24 -25 29 -27 -28 -29 -30 -31
leaf_value=0.020209897709345278 -0.0030308521975523591 0.0010031650729757913 -0.0040960484942823196 -0.0028828926793435122 -0.0060538538554492831 0.0056313200521221785 0.0022384980489128059 0.0038958388480354431 -0.003830901786590772 0.0093840033482565956 -0.0082416147801795889 -0.0026005552243481083 0.01432490327749129 0.014342938197050386 0.017108352354801896 -0.0065064321948246706 0.0060472167584320804 0.010890465778685575 0.0051415756900864053 0.019423866857510567 0.0024733740061162021 0.007107509087280175 -0.0014060392920867953 0.0030556303012694228 0.020949959958940396 0.0093331007547277443 -0.0012179800362573476 0.0018353781472732662 0.029614340940925382 0.013847173845638496
leaf_weight=76.49240930378437 611.65985175967216 347.15578155964613 1514.7046387791634 61.970828972756863 138.77758917957544 44.219846472144127 960.3193536400795 433.00842563062906 1630.7121846601367 472.17213901877403 1189.1687216758728 144.35340294241905 247.07582954317331 22.347586199641228 43.954130798578262 2243.9477777332067 432.79317784309387 114.69693309813738 120.65730927139521 337.02187591046095 336.45997509360313 30.711119912564754 494.10587315261364 758.13110373914242 76.103145472705364 359.24840468913317 777.26443976163864 232.33409607410431 71.563583701848984 307.50349574536085
leaf_count=859 8441 4553 20922 842 1931 540 12708 5741 22745 5820 16998 1945 3016 285 537 31815 5594 1351 1489 3979 4503 383 6727 9841 890 4450 10653 2998 793 3688
internal_value=0 0.0061172 -0.00436538 0.0125961 0.00354362 0.0156413 0.00529984 0.00668857 -0.00188639 0.00780325 -0.00618759 -0.000304949 0.0090686 0.00713736 0.00592243 -0.0055364 0.0070775 0.0143227 0.0122826 0.0166317 -0.000762187 0.0184089 0.000885326 0.00214538 0.0142848 0.0113755 -9.83198e-05 0.00295251 0.0247894 0.0152693
internal_weight=0 6043.85 8586.78 1717.69 4326.16 1178.97 3073.66 2113.34 3638.96 1766.19 4947.82 2008.25 1333.18 726.854 538.718 3758.65 476.747 1030.91 548.484 482.43 1252.5 367.733 1396.59 902.485 427.826 606.324 1113.72 254.682 148.056 383.607
internal_count=197037 77603 119434 20945 56658 13972 39571 26863 49699 22310 69735 26954 16569 9103 6973 52737 6131 12320 6607 5713 17087 4362 18513 11786 5118 7466 15156 3283 1652 4578
is_linear=0
shrinkage=0.01


Tree=13
num_leaves=31
num_cat=0
split_feature=10 10 10 4 4 10 7 4 5 6 10 7 2 4 2 2 2 5 10 5 10 2 5 2 2 2 10 7 6 10
split_gain=3815.05 969.116 383.809 331.765 318.722 131.553 115.529 110.03 104.477 77.0942 65.2958 64.0984 59.3905 51.7395 50.4547 49.8756 75.5559 46.3641 40.1916 34.3184 34.0073 33.6442 30.7697 29.0442 27.6564 26.1838 25.6905 24.7082 23.3995 23.2774
threshold=0.36170400000000008 0.20782750000000003 0.46170800000000006 7.5000000000000009 10.500000000000002 0.063623500000000013 1.5000000000000002 6.5000000000000009 41.500000000000007 1.0000000180025095e-35 0.61189900000000008 2.5000000000000004 180294.50000000003 8.5000000000000018 247387.50000000003 270022.50000000006 659619.00000000012 51.500000000000007 0.31324600000000008 50.500000000000007 0.42314250000000003 1078330.5000000002 34.500000000000007 270022.50000000006 279173.00000000006 675020.00000000012 0.10389350000000001 1.5000000000000002 1.0000000180025095e-35 0.18174300000000002
decision_type=2 2 2 2 2 2 2 2 2 2 2 2 2 2 2 2 2 2 2 2 2 2 2 2 2 2 2 2 2 2
left_child=1 3 7 5 6 21 -3 11 12 -10 13 -2 -8 -4 -5 29 17 26 25 -6 24 23 -16 28 -13 -14 -17 -28 -1 -7
right_child=2 4 10 14 19 15 8 -9 9 -11 -12 20 18 -15 22 16 -18 -19 -20 -21 -22 -23 -24 -25 -26 -27 27 -29 -30 -31
leaf_value=0.012362708575060791 -0.0030082575645021853 0.0014212820177921682 -0.0045432291318236928 2.6793622621276123e-05 0.0018016724711806082 0.012365770366242047 0.0030697460960306859 -0.0038049482919507082 0.0008814562469841872 0.0069325689943699918 -0.0082167906337404523 -0.00080315550648241835 0.010846921729133985 -0.0069579874794522467 0.015940931992311648 0.024271350942499451 0.010889382924956366 0.007437689980291126 0.0061477538990704931 -0.0018273965627332248 -0.0011341215414566251 0.00074173165959792741 0.0065624510839101379 0.028622848993117841 0.003175437968221831 0.0068265669268305733 0.011065344869897051 0.018725979427747882 0.026063450572733689 0.0062017167605539205
leaf_weight=28.342804953455925 610.09925977885723 637.40640772879124 2250.1554927974939 118.56137079000473 368.47321656346321 235.00047145783901 234.65680637210608 1625.4434451833367 505.9512502476573 363.35908752679825 1180.8753737285733 238.41970716416836 655.18041614443064 1490.9326812401414 39.524354182183743 75.311623014509678 241.97757952660322 40.940488897264004 464.49831540137529 883.22204458713531 523.38242519646883 6.3686140328645697 383.28115464001894 90.615326546132565 635.81859003007412 226.06028147786856 52.81873980909586 308.81813368201256 25.683312609791756 88.100005798041821
leaf_count=318 8441 8524 31404 1574 4934 2808 3017 22745 6636 4624 16998 3177 8033 21333 477 837 2949 495 5840 12153 6995 75 4922 975 8341 2897 644 3515 284 1072
internal_value=0 0.00602561 -0.00433787 0.0123427 0.00349789 0.0152895 0.00522391 -0.00187058 0.0062113 0.00341649 -0.00615808 -0.000302034 0.00774544 -0.00550692 0.0058343 0.0140149 0.0154956 0.0178175 0.00855703 -0.000755079 0.000875728 0.0240592 0.00745099 0.0250513 0.00208469 0.00982127 0.0187786 0.0176209 0.0189684 0.0107005
internal_weight=0 6074.15 8555.13 1735.34 4338.81 1193.98 3087.11 3633.16 2449.71 869.31 4921.96 2007.72 1580.4 3741.09 541.367 1042.97 719.867 477.889 1345.74 1251.7 1397.62 151.01 422.806 144.641 874.238 881.241 436.948 361.637 54.0261 323.1
internal_count=197037 77603 119434 20945 56658 13972 39571 49699 31047 11260 69735 26954 19787 52737 6973 12320 8440 5491 16770 17087 18513 1652 5399 1577 11518 10930 4996 4159 602 3880
is_linear=0
shrinkage=0.01


Tree=14
num_leaves=31
num_cat=0
split_feature=10 10 10 4 4 3 2 10 4 3 10 7 7 3 4 2 3 5 3 3 2 10 3 3 5 2 7 5 2 2
split_gain=3734.34 933.136 380.155 316.506 310.328 124.79 149.965 123.605 108.386 84.96 65.0985 64.1403 62.9507 52.6996 51.5244 47.5476 68.1826 44.4163 43.0744 39.6565 70.1986 37.6435 37.3192 48.7819 34.7988 31.6266 31.2357 30.7052 30.3652 36.3948
threshold=0.36170400000000008 0.20782750000000003 0.46170800000000006 7.5000000000000009 10.500000000000002 21.500000000000004 305977.50000000006 0.063623500000000013 6.5000000000000009 11.500000000000002 0.61189900000000008 1.5000000000000002 2.5000000000000004 10.500000000000002 4.5000000000000009 202632.50000000003 21.500000000000004 34.500000000000007 10.500000000000002 21.500000000000004 314077.50000000006 0.26067550000000006 10.500000000000002 14.500000000000002 52.500000000000007 1078330.5000000002 2.5000000000000004 50.500000000000007 849080.00000000012 301518.00000000006
decision_type=2 2 2 2 2 2 2 2 2 2 2 2 2 2 2 2 2 2 2 2 2 2 2 2 2 2 2 2 2 2
left_child=1 3 8 7 5 6 24 25 12 -8 14 -11 -2 -5 -4 -9 22 -15 -6 20 -14 -13 -17 -24 26 -1 -3 -20 29 -25
right_child=2 4 10 13 18 -7 9 15 -10 11 -12 21 19 17 -16 16 -18 -19 27 -21 -22 -23 23 28 -26 -27 -28 -29 -30 -31
leaf_value=0.024312864147100394 -0.0029857784457295164 0.00074408871302965199 -0.0040392949818346749 -0.0028781961013437554 -0.0060192759638315338 0.0021588414773831793 -0.00073067292106521534 0.0088948523157147494 -0.0037790952507408796 0.0048646832043134323 -0.0081919458771568671 0.014088756727857279 -0.00092371166528604112 0.0163809362218688 -0.0064493843670553851 0.0092890359340608557 0.010318018902673731 0.0058742387862522243 0.0024218668018639298 -0.0014059830865963082 0.0046617980307381672 0.0094880462792527875 0.021956806581668417 0.010210591151717194 -0.0031131882958730988 0.00073386967551831777 0.0051589768039668775 -0.0011906130525623877 0.0020442775921928943 0.017747968109581066
leaf_weight=147.53263085335493 608.55342631787062 213.53274178504944 1503.7078578099608 61.938012026250362 137.95257310569286 965.72355143725872 83.996379725635052 175.6236068084836 1620.2239075303078 225.57324647903442 1172.6535042747855 263.42791093885899 411.87740526348352 45.071367397904396 2219.9756387770176 67.153575874865055 259.28893143683672 436.96886071562767 337.66585487127304 494.10245794057846 492.66853997856379 599.29831243306398 166.23631452023983 87.694491744041443 71.36788422614336 6.3724528178572646 677.50542069226503 775.27461770176888 17.212294362485409 281.63288770616055
leaf_count=1577 8441 2837 20922 842 1931 12708 1100 2117 22745 2992 16998 3136 5490 537 31815 790 3164 5594 4503 6727 6296 7298 1869 1017 952 75 8548 10653 204 3159
internal_value=0 0.00593598 -0.00431044 0.0120976 0.0034529 0.00514939 0.00649995 0.014951 -0.00185487 0.00890433 -0.0061286 0.00965257 -0.000299143 0.00574821 -0.00547748 0.013718 0.0146757 0.006867 -0.000747982 0.00086624 0.00211296 0.0108986 0.0164903 0.0173561 0.003566 0.0233691 0.00410658 -9.0095e-05 0.0153646 0.0159718
internal_weight=0 6104.04 8523.76 1752.73 4351.32 3100.43 2134.7 1208.75 3627.43 1172.3 4896.34 1088.3 2007.2 543.978 3723.68 1054.84 879.218 482.04 1250.89 1398.65 904.546 862.726 619.93 552.776 962.406 153.905 891.038 1112.94 386.54 369.327
internal_count=197037 77603 119434 20945 56658 39571 26863 13972 49699 14526 69735 13426 26954 6973 52737 12320 10203 6131 17087 18513 11786 10434 7039 6249 12337 1652 11385 15156 4380 4176
is_linear=0
shrinkage=0.01


Tree=15
num_leaves=31
num_cat=0
split_feature=10 10 4 10 4 10 4 3 2 2 7 3 10 2 3 2 5 10 5 6 7 3 5 7 5 3 4 2 11 3
split_gain=3753.14 995.438 382.693 377.875 298.325 161.294 99.8343 93.9675 115.52 67.7059 65.7185 60.8049 60.1347 55.2066 47.7581 60.2756 45.3526 43.3913 42.8951 55.2305 47.7108 40.3685 36.5693 35.4508 33.3477 32.1177 31.8056 31.5974 39.3242 30.6825
threshold=0.36170400000000008 0.21998650000000003 6.5000000000000009 0.46170800000000006 10.500000000000002 0.14500300000000002 6.5000000000000009 21.500000000000004 305977.50000000006 269766.00000000006 2.5000000000000004 11.500000000000002 0.63366250000000013 668394.00000000012 21.500000000000004 292531.50000000006 39.500000000000007 0.047265000000000008 44.500000000000007 1.0000000180025095e-35 3.5000000000000004 12.500000000000002 52.500000000000007 1.5000000000000002 26.500000000000004 10.500000000000002 7.5000000000000009 216387.00000000003 0.10379112554112556 27.500000000000004
decision_type=2 2 2 2 2 2 2 2 2 2 2 2 2 2 2 2 2 2 2 2 2 2 2 2 2 2 2 2 10 2
left_child=1 2 5 6 7 17 10 8 22 16 -2 -10 26 24 15 -12 -4 -1 20 -20 -7 -15 -3 -19 -13 -6 -5 -22 29 -29
right_child=3 4 9 12 25 18 -8 -9 11 -11 14 13 -14 21 -16 -17 -18 23 19 -21 27 -23 -24 -25 -26 -27 -28 28 -30 -31
leaf_value=0.024749491804048614 -0.0030940339417812779 0.0039938351268181396 0.010709809676111001 -0.0047665341538003737 -0.0057090442319429544 0.0079693327001048447 -0.0036778151553800926 0.0022050216257336244 -0.00012247651519199079 0.007658889430702036 -0.0007750782782641177 0.0048610182252270488 -0.0084499840570556248 0.019129128767860548 -0.0016558330106902256 0.0044244588112925315 -0.0016320327974988671 0.010560296761062123 0.0017926627446731391 0.013680972898197415 0.0089776604679188236 0.0035155399833561641 -0.0036970121188294324 0.018623076427971178 0.011008393788272928 -0.00046472490173168088 -0.0065885901274569773 0.016805218728667502 0.042046968188110372 0.0082521957200103798
leaf_weight=105.57190658897161 604.3518575951457 837.41593034565449 36.666047282516956 2222.2881046161056 131.70452573895454 143.66884404420853 1618.9937830641866 908.12463675439358 79.275411747395992 505.27937055379152 386.16325404495001 104.92315409332514 896.34038213640451 18.09965143352747 491.28870896995068 522.95385590940714 157.1348195001483 66.442477338016033 88.795079469680786 71.416039384901524 82.322254791855812 224.8901429772377 66.078663684427738 412.55315710604191 682.44244510680437 1060.8964746519923 1736.5192887783051 298.06607272475958 5.9300311654806128 51.713047668337822
leaf_count=1109 8404 10687 455 31274 1854 1745 22803 11944 1040 6365 5161 1266 13093 223 6697 6664 2094 782 1086 844 993 2825 885 4620 8330 14469 25140 3369 68 632
internal_value=0 0.00599023 0.0117296 -0.00427604 0.00316309 0.0148875 -0.00183049 0.00488401 0.00609002 0.00573055 -0.000336148 0.00825478 -0.00610031 0.00890418 0.00085046 0.00221037 0.000677176 0.0188302 0.0117742 0.00712323 0.0130465 0.00469913 0.00342582 0.0175151 0.0101956 -0.00104807 -0.00556704 0.0147003 0.0160107 0.015555
internal_weight=0 6139.41 2025.56 8478.9 4113.85 1326.48 3623.75 2921.25 2013.13 699.08 2004.76 1109.63 4855.15 1030.36 1400.41 909.117 193.801 584.568 741.911 160.211 581.7 242.99 903.495 478.996 787.366 1192.6 3958.81 438.031 355.709 349.779
internal_count=196921 77685 24162 119236 53523 15248 49729 37200 25256 8914 26926 13684 69507 12644 18522 11825 2549 6511 8737 1930 6807 3048 11572 5402 9596 16323 56414 5062 4069 4001
is_linear=0
shrinkage=0.01


Tree=16
num_leaves=31
num_cat=0
split_feature=4 7 3 3 7 5 5 6 2 6 3 5 2 8 3 3 3 3 8 5 2 2 2 6 3 2 8 6 8 5
split_gain=1018.05 448.326 270.942 196.066 140.689 190.457 121.015 91.9236 88.3568 81.1939 64.3847 57.7873 53.9268 53.291 51.4974 54.9323 47.3593 47.0921 35.4868 33.7892 33.6993 31.6487 38.6418 32.1723 29.2893 28.2118 27.9413 26.6249 57.626 30.4382
threshold=4.5000000000000009 2.5000000000000004 21.500000000000004 11.500000000000002 1.5000000000000002 40.500000000000007 39.500000000000007 1.0000000180025095e-35 279173.00000000006 1.0000000180025095e-35 14.500000000000002 38.500000000000007 646983.00000000012 1.0000000180025095e-35 21.500000000000004 10.500000000000002 10.500000000000002 21.500000000000004 1.0000000180025095e-35 53.500000000000007 305977.50000000006 279173.00000000006 849080.00000000012 1.0000000180025095e-35 12.500000000000002 636162.50000000012 1.0000000180025095e-35 1.0000000180025095e-35 1.0000000180025095e-35 24.500000000000004
decision_type=2 2 2 2 2 2 2 2 2 2 2 2 2 2 2 2 2 2 2 2 2 2 2 2 2 2 2 2 2 2
left_child=1 17 3 11 -2 14 8 16 10 19 -5 -3 25 -11 15 -6 -7 21 -9 -8 -17 -1 23 -23 -18 -10 -25 29 -29 -4
right_child=4 2 27 6 5 7 9 18 12 13 -12 -13 -14 -15 -16 20 24 -19 -20 -21 -22 22 -24 26 -26 -27 -28 28 -30 -31
leaf_value=-0.0019117639741845793 -0.0048898660183606711 0.0033677656270131033 0.011169988172128158 0.010603687029569734 -0.0024810081285419842 -0.0070400635381848179 0.0030694567354146761 0.0016542779815918011 0.011335085132961617 0.011487078225469053 0.0036653605453915595 -0.0033837568846719645 0.0057574329435576737 0.0043980640210986152 -0.0012198740345901544 0.00096863323356276537 0.0026662849297511603 -0.0031414871929119864 -0.0019125521239178251 -0.0037825927838003016 0.0049630972098085972 0.0003621662761852533 -0.0046481988924243975 0.0087017308229358128 -0.0033495512864634138 0.020810204493754512 0.0021831019291429325 0.006495926874545377 4.9168265799718574e-05 -0.00030453409851495397
leaf_weight=498.96053180843592 1764.6779455989599 310.52583561837673 23.73215788602829 198.82259505242109 185.50161222368479 359.19461417943239 489.5931753590703 510.99821005016565 853.89899715781212 207.35784462839365 420.25510098785162 213.85538449883461 188.54820118099451 223.65041437000036 578.21732893586159 340.76224118471146 82.333620965480804 704.98704253137112 613.10582979023457 83.765862509608269 570.82646653056145 427.35693872720003 95.893529035151005 109.25264701247215 2888.8509074598551 34.031610660254955 172.35468009114265 238.56684886664152 334.85470476746559 892.78698477894068
leaf_count=6744 25106 3958 301 2430 2546 5175 6332 6902 10031 2514 5309 2869 2346 2821 7951 4520 1116 9789 8452 1126 7362 5777 1329 1413 40433 393 2289 3107 4458 12022
internal_value=0 0.00289479 0.00458068 0.00621066 -0.00240033 -0.00168281 0.00729758 -0.00276415 0.00893006 0.00453668 0.00590175 0.000604796 0.010667 0.00782019 0.00118937 0.00246371 -0.00359886 -0.00105914 -0.000286685 0.00205967 0.00347541 6.29706e-05 0.00129339 0.0021041 -0.00318117 0.0117039 0.00472983 0.00104996 0.00274 -1.95976e-06
internal_weight=0 6723.05 4714.25 3224.31 7894.47 6129.79 2699.92 4454.48 1695.56 1004.37 619.078 524.381 1076.48 431.008 1675.31 1097.09 3330.38 2008.81 1124.1 573.359 911.589 1303.82 804.858 708.964 2971.18 887.931 281.607 1489.94 573.422 916.519
internal_count=196921 87358 60017 40129 109563 84457 33302 62078 20509 12793 7739 6827 12770 5335 22379 14428 46724 27341 15354 7458 11882 17552 10808 9479 41549 10424 3702 19888 7565 12323
is_linear=0
shrinkage=0.01


Tree=17
num_leaves=31
num_cat=0
split_feature=10 10 10 4 4 10 4 7 3 2 2 7 10 3 2 5 2 3 10 10 5 7 3 4 10 10 2 5 5 2
split_gain=3660.05 954.444 373.28 356.049 285.046 151.309 96.1558 89.2183 78.957 102.57 65.4803 62.9768 59.8197 45.4746 57.6822 43.952 40.362 60.8584 40.2788 37.1564 32.7942 32.2004 31.5295 31.016 29.0935 27.9565 27.6072 27.1171 26.5075 26.4253
threshold=0.36170400000000008 0.21998650000000003 0.46170800000000006 6.5000000000000009 10.500000000000002 0.14500300000000002 6.5000000000000009 1.5000000000000002 21.500000000000004 314077.50000000006 269766.00000000006 2.5000000000000004 0.63366250000000013 21.500000000000004 292531.50000000006 39.500000000000007 216387.00000000003 21.500000000000004 0.047265000000000008 0.26067550000000006 45.500000000000007 1.5000000000000002 10.500000000000002 7.5000000000000009 1.0000000180025095e-35 0.41376950000000007 96102.000000000015 23.500000000000004 44.500000000000007 180294.50000000003
decision_type=2 2 2 2 2 2 2 2 2 2 2 2 2 2 2 2 2 2 2 2 2 2 2 2 2 2 2 2 2 2
left_child=1 3 6 5 7 18 11 -3 9 20 15 -2 23 14 -13 -5 -7 -18 24 -11 29 -20 -6 -4 -1 -16 -26 -23 -24 -9
right_child=2 4 12 10 22 16 -8 8 -10 19 -12 13 -14 -15 25 -17 17 -19 21 -21 -22 27 28 -25 26 -27 -28 -29 -30 -31
leaf_value=0.0035477710129889462 -0.0030591680476803875 0.0013779591158945646 -0.00474190664203977 0.010524028025831744 -0.0056538061514966112 0.0063454823374348955 -0.0036345652860067098 0.0026346045096740452 0.0028706650939956551 0.012863882553718618 0.0075656485248753258 -0.00079639869199875347 -0.0084203859927269378 -0.0016445128977533861 0.0064058736210937141 -0.0015898409052624194 0.014656524365213948 0.0078096649576548582 0.010380848572576699 0.0080335029570056098 0 0.011110302611021191 0.0028185855687580491 -0.006546963047067941 -0.0053655949481475106 0.0017517192294279826 0.026147873851522271 0.019023836694768204 -0.0012081483264141826 0.006918279705850015
leaf_weight=7.1310296803712836 601.94808702170849 611.71367191523314 2214.4956545978785 36.966063022613525 130.520845875144 130.54802338778973 1610.4164332598448 242.71367570012808 703.35211231559515 219.00139197707176 507.66771258413792 386.89485009759665 888.28988615423441 490.74434339255095 285.28609547764063 156.4928210452199 428.83210015296936 191.73465851694345 66.966900825500488 640.79172596335411 148.46144704520702 52.817243427038193 201.62292321026325 1722.5984725877643 2.5915869921445838 242.34975183010101 98.293729767203331 367.57736208289862 856.62782990187407 371.86012706905603
leaf_count=76 8404 8147 31274 455 1854 1576 22803 3089 9175 2574 6365 5161 13093 6697 3565 2094 4824 2337 782 7690 1938 579 2677 25140 28 3099 1005 4041 11792 4587
internal_value=0 0.00588611 -0.00424448 0.0114686 0.00311491 0.01448 -0.0018141 0.00478702 0.00568135 0.00689645 0.0056781 -0.000351024 -0.00606552 0.000805449 0.00212559 0.000699028 0.0114776 0.0125491 0.0182595 0.00926968 0.00421573 0.0169991 -0.0010133 -0.00553294 0.0238998 0.00427764 0.0252888 0.0180415 -0.000436231 0.00523466
internal_weight=0 6174.28 8443.02 2047.62 4126.67 1346.49 3617.64 2937.89 2326.18 1622.83 701.127 2007.22 4825.38 1405.28 914.531 193.459 751.115 620.567 595.378 859.793 763.035 487.362 1188.77 3937.09 108.016 527.636 100.885 420.395 1058.25 614.574
internal_count=196921 77685 119236 24162 53523 15248 49729 37200 29053 19878 8914 26926 69507 18522 11825 2549 8737 7161 6511 10264 9614 5402 16323 56414 1109 6664 1033 4620 14469 7676
is_linear=0
shrinkage=0.01


Tree=18
num_leaves=31
num_cat=0
split_feature=4 7 3 3 7 5 5 6 2 6 3 5 2 8 3 3 3 3 8 5 2 2 2 6 2 3 8 6 8 5
split_gain=980.487 428.518 256.212 187.47 137.916 184.997 114.212 90.2943 82.6169 77.6769 61.3058 55.9623 50.7414 50.6243 49.5203 53.2515 46.7893 45.8278 34.7352 32.9051 32.486 31.0411 37.7323 31.0885 29.9827 28.8042 26.8317 25.7837 55.6864 29.2481
threshold=4.5000000000000009 2.5000000000000004 21.500000000000004 11.500000000000002 1.5000000000000002 40.500000000000007 39.500000000000007 1.0000000180025095e-35 279173.00000000006 1.0000000180025095e-35 14.500000000000002 38.500000000000007 640269.00000000012 1.0000000180025095e-35 21.500000000000004 10.500000000000002 10.500000000000002 21.500000000000004 1.0000000180025095e-35 53.500000000000007 305977.50000000006 279173.00000000006 849080.00000000012 1.0000000180025095e-35 636162.50000000012 12.500000000000002 1.0000000180025095e-35 1.0000000180025095e-35 1.0000000180025095e-35 24.500000000000004
decision_type=2 2 2 2 2 2 2 2 2 2 2 2 2 2 2 2 2 2 2 2 2 2 2 2 2 2 2 2 2 2
left_child=1 17 3 11 -2 14 8 16 10 19 -5 -3 24 -11 15 -6 -7 21 -9 -8 -17 -1 23 -23 -10 -18 -25 29 -29 -4
right_child=4 2 27 6 5 7 9 18 12 13 -12 -13 -14 -15 -16 20 25 -19 -20 -21 -22 22 -24 26 -26 -27 -28 28 -30 -31
leaf_value=-0.0018965780885699607 -0.0048405331815777417 0.0032687672328551832 0.010876380013708354 0.010302098161728928 -0.0024598694210660526 -0.0069941785005585176 0.0029888329857178848 0.0016490781711455882 0.010972780047421627 0.011153600117101559 0.0035678985958307041 -0.0033702087637686685 0.0056274820171768507 0.0042798650374279087 -0.0011960148515708826 0.00094666586823969744 0.0026552427475755088 -0.0031039487622707379 -0.0018820264339086145 -0.0037739182443453229 0.0048626606061483489 0.00036148237830769441 -0.0046105593474160649 0.008519921939483463 0.02097505474178845 -0.0033087752990861351 0.0021505553631965412 0.0063658376318629249 4.1862344481865044e-05 -0.00030256475440118362
leaf_weight=498.16129504144192 1752.0540675148368 312.49912319332361 24.033937953412533 201.46809885650873 185.06865395605564 355.71942660957575 492.16465951502323 511.16732373833656 867.0839180201292 210.2927712649107 422.83093395829201 213.49145116657019 192.87898121774197 225.23968578875065 576.88931246846914 341.31153761595488 82.392326444387436 701.91862194240093 611.19254928082228 83.666211135685444 574.16467716544867 427.34355144202709 95.38659244030714 110.20976315438747 32.259082123637199 2874.8716935291886 172.73786470293999 240.23994862288237 335.03481317311525 892.57046707719564
leaf_count=6744 25106 3958 301 2430 2546 5175 6332 6902 10031 2514 5309 2869 2376 2821 7951 4520 1116 9789 8452 1126 7362 5777 1329 1413 363 40433 2289 3107 4458 12022
internal_value=0 0.00282953 0.00446757 0.00604119 -0.00236557 -0.00165538 0.00709535 -0.00272557 0.00866901 0.00441954 0.00574911 0.000564604 0.0103334 0.00761026 0.00117135 0.00241683 -0.00355616 -0.00104368 -0.000269366 0.00199755 0.00340815 6.16263e-05 0.00127862 0.00207653 0.0113371 -0.00314092 0.00464913 0.00103205 0.0026915 -3.99095e-06
internal_weight=0 6751.51 4745.75 3253.87 7864.83 6112.78 2727.88 4435.34 1716.52 1011.36 624.299 525.991 1092.22 435.532 1677.43 1100.54 3312.98 2005.76 1122.36 575.831 915.476 1303.84 805.678 710.291 899.343 2957.26 282.948 1491.88 575.275 916.604
internal_count=196921 87358 60017 40129 109563 84457 33302 62078 20509 12793 7739 6827 12770 5335 22379 14428 46724 27341 15354 7458 11882 17552 10808 9479 10394 41549 3702 19888 7565 12323
is_linear=0
shrinkage=0.01


Tree=19
num_leaves=31
num_cat=0
split_feature=10 10 10 4 4 10 4 3 2 2 10 3 3 2 2 5 5 6 2 3 10 5 10 2 5 3 4 10 10 3
split_gain=3569.61 915.51 368.728 331.448 272.383 142.176 92.6093 83.2945 104.314 63.3324 59.5051 56.0056 50.7281 58.2206 49.9583 42.5985 38.8253 51.0371 41.2456 38.1042 37.4727 34.5919 34.4757 33.1274 32.382 30.9476 30.3058 27.0503 26.8173 26.1096
threshold=0.36170400000000008 0.21998650000000003 0.46170800000000006 6.5000000000000009 10.500000000000002 0.14500300000000002 6.5000000000000009 21.500000000000004 305977.50000000006 269766.00000000006 0.63366250000000013 11.500000000000002 21.500000000000004 284323.50000000006 668394.00000000012 39.500000000000007 44.500000000000007 1.0000000180025095e-35 216387.00000000003 12.500000000000002 0.047265000000000008 52.500000000000007 0.42314250000000003 808866.00000000012 26.500000000000004 10.500000000000002 8.5000000000000018 1.0000000180025095e-35 0.26067550000000006 17.500000000000004
decision_type=2 2 2 2 2 2 2 2 2 2 2 2 2 2 2 2 2 2 2 2 2 2 2 2 2 2 2 2 2 2
left_child=1 3 6 5 7 20 12 8 21 15 26 -10 13 -2 24 -5 18 -18 -7 -16 27 -3 -15 -20 -13 -6 -4 -1 -26 -21
right_child=2 4 10 9 25 16 -8 -9 11 -11 -12 14 -14 22 19 -17 17 -19 23 29 -22 -23 -24 -25 28 -27 -28 -29 -30 -31
leaf_value=0.0034767489083567639 -0.0018384589981913669 0.0038338294447064487 -0.004781371175502435 0.010343289744610622 -0.0055986882182545361 0.0067601005342371187 -0.0035916415814491822 0.0021682433279596887 -0.00017853255642640456 0.0074739595712772985 -0.008390804531547039 0.0044712097426812111 -0.0025291620677429559 0.0040954448650109459 0.018303185513931959 -0.0015481968442954866 0.0016682766515690628 0.012992029479144865 0.014839209698814517 -0.0024170752139155041 0.016508068334573019 -0.0036591216222905403 -0.00019085588882950926 0.0077720381290595133 0.013877190583335575 -0.00040824911337443849 -0.0065978037403343504 0.024413416892427535 0.0092870394758058205 0.005311969952685334
leaf_weight=7.1620800569653502 508.5121633708477 845.78673692792654 2371.5533741340041 37.262348487973213 129.35660168528557 109.96667885035276 1601.9782794117928 910.46834753453732 79.647969894111156 510.03629052639008 880.3360428661108 107.35441800951958 704.61536211520433 499.25343308597803 18.588780254125595 155.86344837397337 89.586814008653164 73.353973291814327 403.97351226210594 57.850208781659603 495.57940554618835 65.772068433463573 297.18557791411877 83.297719821333885 177.13056832551956 1055.6581929251552 1544.0497954115272 103.25105592608452 521.82235794514418 169.78216468542814
leaf_count=76 6884 10687 33686 455 1854 1313 22803 11944 1040 6365 13093 1266 9736 6400 223 2094 1086 844 4497 718 5402 885 3906 997 2074 14469 22728 1033 6256 2107
internal_value=0 0.00578458 -0.00421304 0.0112165 0.00306777 0.0140902 -0.00179778 0.00469276 0.00581497 0.00562615 -0.0060308 0.00784536 -0.000365263 0.000799315 0.0084573 0.000720297 0.011192 0.00679678 0.0123827 0.0044768 0.0177175 0.0032877 0.00248976 0.0136414 0.00966662 -0.000979058 -0.00549893 0.0231006 0.0104574 0.00332575
internal_weight=0 6208.55 8407.48 2069.33 4139.22 1366.17 3611.54 2954.2 2043.74 703.162 4795.94 1132.18 2009.57 1304.95 1052.53 193.126 760.179 162.941 597.238 246.221 605.993 911.559 796.439 487.271 806.307 1185.01 3915.6 110.413 698.953 227.632
internal_count=196921 77685 119236 24162 53523 15248 49729 37200 25256 8914 69507 13684 26926 17190 12644 2549 8737 1930 6807 3048 6511 11572 10306 5494 9596 16323 56414 1109 8330 2825
is_linear=0
shrinkage=0.01


Tree=20
num_leaves=31
num_cat=0
split_feature=10 10 10 4 4 7 4 5 10 10 6 10 7 3 2 2 3 7 5 6 2 2 3 4 3 4 2 3 5 10
split_gain=3472.85 859.359 361.354 306.558 230.872 122.887 98.9725 86.983 85.2088 70.5719 60.542 57.9153 55.8565 42.4757 59.204 41.9165 42.1753 41.8557 41.5834 42.7785 37.4429 36.2138 45.1874 36.0899 34.5529 33.1654 28.6446 28.4749 27.7405 26.014
threshold=0.36170400000000008 0.19388150000000001 0.463258 13.500000000000002 9.5000000000000018 1.5000000000000002 7.5000000000000009 41.500000000000007 0.063623500000000013 0.25867450000000008 1.0000000180025095e-35 0.61189900000000008 2.5000000000000004 21.500000000000004 284323.50000000006 180294.50000000003 22.500000000000004 2.5000000000000004 49.500000000000007 1.0000000180025095e-35 258738.50000000003 314077.50000000006 21.500000000000004 5.5000000000000009 11.500000000000002 3.5000000000000004 216387.00000000003 10.500000000000002 50.500000000000007 1.0000000180025095e-35
decision_type=2 2 2 2 2 2 2 2 2 2 2 2 2 2 2 2 2 2 2 2 2 2 2 2 2 2 2 2 2 2
left_child=1 4 6 5 8 -3 12 9 24 21 -9 23 -2 14 -14 -11 -17 -10 25 -20 -6 -7 -23 -4 -1 26 -19 -5 -16 -26
right_child=2 3 11 27 20 7 -8 10 17 15 -12 -13 13 -15 28 16 -18 18 19 -21 -22 22 -24 -25 29 -27 -28 -29 -30 -31
leaf_value=0.0089201328283506215 -0.0029917753634759775 0.0012136696484194162 -0.0043415145159370564 -0.005481664528909462 0.00017790189489033447 0.0069571168793745725 -0.003879883821080747 0.0014239985507750004 0.0088790012506871508 0.0011744303985623259 0.006390971418739004 -0.0080385244768735528 -0.0012702975889524446 -0.0017325200570467326 0.0045350362938728992 0.0078312113842904946 0.0032918723881879865 0.011429517664872242 0.0022240143701759063 0.014876076116700762 0.0072497329656585549 0.014627747974842596 0.0070528188786047087 -0.006371004471281032 0.0025823910706136073 0.011694992382273641 0.017791043970244304 -0.00047210505978395844 -0.0017684822588172027 0.023282505426189211
leaf_weight=23.146279156208038 643.11326839029789 710.32645320147276 1658.9596311971545 128.50690104812384 102.5484184473753 239.57094541192055 1460.7884367704391 585.09348131716251 192.93300047516823 171.17976766824722 426.93126754462719 1133.4747100174427 393.68641476333141 542.94622427225113 526.95738968998194 737.24292473495007 289.47439223527908 93.049259327352047 57.020672343671322 52.163751788437366 292.87690450996161 235.98423797637224 122.98565479367971 1917.314541734755 6.8984387889504424 211.70391535013914 383.26940009742975 1000.6143175140023 79.240041568875313 149.10487928986549
leaf_count=248 9033 9385 23451 1851 1370 2880 20908 7573 2249 2167 5285 16934 5278 7458 6610 8736 3741 1055 683 587 3651 2623 1545 28228 73 2391 4071 13725 1031 1482
internal_value=0 0.00564283 -0.00422929 0.00348338 0.0120542 0.00493842 -0.0018641 0.00587872 0.0142906 0.0072023 0.0035243 -0.00605958 -0.000514734 0.000514556 0.00173974 0.00579136 0.00655625 0.0131285 0.0141506 0.00831443 0.00542839 0.0100178 0.0120465 -0.00543096 0.0206856 0.0150695 0.0165588 -0.00104668 0.00370281 0.0223992
internal_weight=0 6212.63 8356.48 4647.91 1564.71 3518.79 3646.73 2808.46 1169.29 1796.44 1012.02 4709.75 2185.94 1542.83 999.884 1197.9 1026.72 990.14 797.207 109.184 395.425 598.541 358.97 3576.27 179.15 688.023 476.319 1129.12 606.197 156.003
internal_count=196302 77371 118931 59511 17860 43935 50318 34550 12839 21692 12858 68613 29410 20377 12919 14644 12477 11036 8787 1270 5021 7048 4168 51679 1803 7517 5126 15576 7641 1555
is_linear=0
shrinkage=0.01


Tree=21
num_leaves=31
num_cat=0
split_feature=10 10 10 4 4 7 4 5 10 10 6 10 7 3 2 2 3 7 5 6 2 4 2 3 3 2 3 3 10 10
split_gain=3400.28 828.201 357.864 298.662 220.693 119.261 97.5165 84.1053 80.5017 67.8823 58.778 57.7321 54.8812 41.61 57.8504 40.6215 40.7351 39.8479 39.5205 41.0591 36.3009 35.8699 34.656 43.0911 32.8278 33.3229 32.4751 28.0756 25.6096 24.4987
threshold=0.36170400000000008 0.19388150000000001 0.463258 13.500000000000002 9.5000000000000018 1.5000000000000002 7.5000000000000009 41.500000000000007 0.063623500000000013 0.25867450000000008 1.0000000180025095e-35 0.61189900000000008 2.5000000000000004 21.500000000000004 288832.50000000006 180294.50000000003 22.500000000000004 2.5000000000000004 49.500000000000007 1.0000000180025095e-35 258738.50000000003 5.5000000000000009 314077.50000000006 21.500000000000004 28.500000000000004 284323.50000000006 11.500000000000002 10.500000000000002 0.33345950000000008 1.0000000180025095e-35
decision_type=2 2 2 2 2 2 2 2 2 2 2 2 2 2 2 2 2 2 2 2 2 2 2 2 2 2 2 2 2 2
left_child=1 4 6 5 8 -3 12 9 26 22 -9 21 -2 14 -14 -11 28 -10 24 -20 -6 -4 -7 -24 25 -19 -1 -5 -17 -28
right_child=2 3 11 27 20 7 -8 10 17 15 -12 -13 13 -15 -16 16 -18 18 19 -21 -22 -23 23 -25 -26 -27 29 -29 -30 -31
leaf_value=0.0087686184135643049 -0.0029694002076750738 0.0012003101919342064 -0.0043140127808577117 -0.0054523262578025523 0.00017609643770655147 0.0068483779726761151 -0.0038538233093560006 0.001408083533643395 0.0087269625597433693 0.0011615518600036831 0.0062937625816748242 -0.008013378277170715 -0.001159186232123198 -0.0017177113756360071 0.0037220779497537143 0.0088888713133144209 0.003250009646479549 0.012457169327678907 0.0021977653841420931 0.014552077271777627 0.0071343116220965929 -0.0063418704082603703 0.014312555510771577 0.0069415912529361299 0.008544186531739462 0.017366341674675049 0.0025513479767647475 -0.00046757053811627322 0.0047143332122700898 0.022638492614952262
leaf_weight=23.309934005141258 641.48788446933031 711.04641769081354 1652.8707582354546 127.9094078540802 102.56368038803339 240.93419924378395 1455.9841597527266 585.78599818795919 194.32421204447746 171.3460767865181 429.17867586761713 1125.7003176733851 409.7316090837121 542.1547806635499 591.59127942472696 530.06740172952414 290.26701751351357 231.81428420543671 57.124156966805458 52.788724169135094 294.63010842353106 1906.9136281609535 238.75515712797642 123.70309437811375 79.328869812190533 385.13404286652803 6.9124795868992797 1000.2168578132987 211.88257439434528 151.79927459359169
leaf_count=248 9033 9385 23451 1851 1370 2880 20908 7573 2249 2167 5285 16934 5491 7458 7428 6218 3741 2572 683 587 3651 28228 2623 1545 918 4027 73 13725 2518 1482
internal_value=0 0.00556102 -0.00420225 0.00343874 0.0118198 0.00486938 -0.00184848 0.00579211 0.0139886 0.00708866 0.00347892 -0.00603023 -0.000509896 0.000509064 0.00171972 0.00570638 0.00645596 0.0128619 0.0138524 0.00817676 0.00535014 -0.0054017 0.00983755 0.0118107 0.0147411 0.0155299 0.0201544 -0.00103719 0.00770347 0.0217951
internal_weight=0 6240.82 8326.43 4661.09 1579.73 3532.97 3640.95 2821.92 1182.54 1806.96 1014.96 4685.48 2184.97 1543.48 1001.32 1203.56 1032.22 1000.51 806.19 109.913 397.194 3559.78 603.392 362.458 696.277 616.948 182.022 1128.13 741.95 158.712
internal_count=196302 77371 118931 59511 17860 43935 50318 34550 12839 21692 12858 68613 29410 20377 12919 14644 12477 11036 8787 1270 5021 51679 7048 4168 7517 6599 1803 15576 8736 1555
is_linear=0
shrinkage=0.01


Tree=22
num_leaves=31
num_cat=0
split_feature=10 10 10 4 4 7 4 5 10 10 10 6 7 3 7 5 6 4 5 3 3 5 10 3 3 3 3 3 8 10
split_gain=3329.4 798.458 354.392 290.998 211.093 115.762 96.0799 81.3436 76.1418 65.3172 57.5468 57.0736 53.9233 40.7639 37.9644 37.5876 39.4269 35.6492 31.2387 31.1767 30.5613 29.6912 29.0543 28.8491 27.681 25.4918 25.1067 35.2254 23.2931 23.0993
threshold=0.36170400000000008 0.19388150000000001 0.463258 13.500000000000002 9.5000000000000018 1.5000000000000002 7.5000000000000009 41.500000000000007 0.063623500000000013 0.25867450000000008 0.61189900000000008 1.0000000180025095e-35 2.5000000000000004 21.500000000000004 2.5000000000000004 49.500000000000007 1.0000000180025095e-35 5.5000000000000009 39.500000000000007 28.500000000000004 11.500000000000002 50.500000000000007 0.40764800000000007 9.5000000000000018 10.500000000000002 17.500000000000004 10.500000000000002 14.500000000000002 1.0000000180025095e-35 1.0000000180025095e-35
decision_type=2 2 2 2 2 2 2 2 2 2 2 2 2 2 2 2 2 2 2 2 2 2 2 2 2 2 2 2 2 2
left_child=1 4 6 5 8 -3 12 9 20 23 17 -9 -2 21 -10 19 -17 -4 -6 26 -1 22 -14 -7 -5 -20 -16 -28 -13 -22
right_child=2 3 10 24 18 7 -8 11 14 -11 -12 28 13 -15 15 16 -18 -19 25 -21 29 -23 -24 -25 -26 -27 27 -29 -30 -31
leaf_value=0.0086208407728256119 -0.0029471401218464787 0.0011871113822278466 -0.0042865963108747939 -0.0054230309402172753 0.013050161241225109 0.0027327014488794849 -0.0038278609470004162 0.0013923653780136241 0.0085787027003921563 0.0056231257150786201 -0.0079882062086313408 0.0087954522036112169 0.0042858214874004971 -0.0017030085934508668 0.0097799765786924543 0.0021718746770648563 0.014239399576807466 -0.0063127461673953738 0.00029619623333254072 0.0084002579058620602 0.0025207431212793097 -0.0027879118610037263 0.00062149889313222785 0.01036225867433579 -0.00046307815407084128 0.0060951159916688407 0.020344849368939818 0.014418313217141061 0.0040619933058008264 0.022025621321983314
leaf_weight=23.471594072878361 639.87790127843618 711.75902178138494 1646.8382502347231 127.31734876334667 46.281276635825634 56.460964433848858 1451.2247484102845 586.47139903157949 195.69877467304468 1209.1586410403252 1117.9937672242522 193.66825746744871 413.88863152265549 541.37101302295923 79.68850077688694 57.226557835936546 53.405267298221588 1896.6059543415904 113.76327466964722 79.878404103219509 6.9263711199164382 127.62860402464867 461.22699077427387 551.72190919518471 999.82332802563906 238.89743354171515 141.67218466103077 403.17517253011465 237.73239863663912 154.44932236522436
leaf_count=248 9033 9385 23451 1851 543 689 20908 7573 2249 14644 16934 2341 5251 7458 887 683 587 28228 1492 918 73 1693 5975 6359 13725 2986 1448 4264 2944 1482
internal_value=0 0.00548085 -0.0041753 0.00339482 0.0115926 0.00480162 -0.00183295 0.00570725 0.013697 0.00697757 -0.00600091 0.00343427 -0.000505076 0.000503672 0.0126039 0.0135643 0.00804242 -0.00537249 0.0052734 0.0144244 0.0196467 0.00170002 0.00236027 0.00966219 -0.00102777 0.00423865 0.0151869 0.0159685 0.00619857 0.0212194
internal_weight=0 6268.65 8296.66 4674.11 1594.53 3546.97 3635.22 2835.21 1195.59 1817.34 4661.44 1017.87 2183.99 1544.12 1010.74 815.046 110.632 3543.44 398.942 704.414 184.847 1002.74 875.116 608.183 1127.14 352.661 624.536 544.847 431.401 161.376
internal_count=196302 77371 118931 59511 17860 43935 50318 34550 12839 21692 68613 12858 29410 20377 11036 8787 1270 51679 5021 7517 1803 12919 11226 7048 15576 4478 6599 5712 5285 1555
is_linear=0
shrinkage=0.01


Tree=23
num_leaves=31
num_cat=0
split_feature=10 10 10 4 4 10 4 7 5 10 7 3 2 2 2 3 7 3 2 10 4 3 2 3 5 10 5 2 10 3
split_gain=3260.16 773.073 350.939 246.98 238.071 119.967 94.6625 93.9431 58.1967 57.3594 52.9821 48.421 88.0018 44.4752 43.2847 61.1452 40.4811 39.9364 56.4514 36.8374 35.4279 30.1348 30.3555 28.7953 26.4351 23.8479 23.8304 23.1002 21.5508 21.0755
threshold=0.36170400000000008 0.22282400000000002 0.463258 9.5000000000000018 13.500000000000002 0.14500300000000002 7.5000000000000009 1.5000000000000002 52.500000000000007 0.61189900000000008 2.5000000000000004 21.500000000000004 305977.50000000006 315333.00000000006 254556.00000000003 21.500000000000004 1.5000000000000002 21.500000000000004 284323.50000000006 0.063623500000000013 5.5000000000000009 11.500000000000002 668394.00000000012 11.500000000000002 50.500000000000007 0.40764800000000007 54.500000000000007 1078330.5000000002 0.30132000000000009 10.500000000000002
decision_type=2 2 2 2 2 2 2 2 2 2 2 2 2 2 2 2 2 2 2 2 2 2 2 2 2 2 2 2 2 2
left_child=1 3 6 5 7 19 10 -3 11 20 -2 12 -9 -5 -7 16 -16 18 -12 23 -4 -14 28 -1 25 -20 -18 -25 -23 -6
right_child=2 4 9 13 29 14 -8 8 -10 -11 17 -13 21 -15 15 -17 26 -19 24 -21 -22 22 -24 27 -26 -27 -28 -29 -30 -31
leaf_value=0.0084766671492391716 -0.0029249951083535298 0.00077513753251017437 -0.004259265641790474 0.00076431936218983516 -0.0055279381533525872 0.0058023698711609237 -0.0038019967552686148 0.0039493265032594866 0.00054229539260541035 -0.0079630081283194928 -0.0012639665069959561 0.0032785369403748378 0.0011404397534934257 0.0066227817032687084 0.0062308389861302138 0.006836650862095328 0.014844529443450983 -0.0016884113217148175 0.0066311585602651857 0.013880553345499487 -0.0062836324249368079 0.011928796422048766 0.0054200562504596707 0.021499013627627375 -0.0017599274266265872 0.0023505066424346975 0.0012588030285672007 0.002782742468381459 0.0081418508318601406 -0.00089111411800743545
leaf_weight=23.631286278367043 638.28320055454969 638.79272017627954 1640.8616448640823 207.74162466078997 111.08231145143509 214.41041193902493 1446.5098728835583 714.25502280890942 255.11108641326427 1110.3545688092709 393.45112559944391 642.2241328433156 50.887241154909134 353.76508563011885 74.980528384447098 240.42553090304136 382.65481892973185 540.59483169019222 252.2724045291543 515.99780739843845 1886.3908568322659 345.36947330087423 173.51778807491064 156.46618589013815 79.173858292400837 279.25693715363741 14.197331272065638 7.5298023819923392 289.17392162978649 883.94360540807247
leaf_count=248 9033 8474 23451 2731 1630 2489 20908 8787 3306 16934 5278 8255 646 4385 881 2852 4028 7458 3086 5479 28228 3868 2048 1474 1031 3524 164 81 3325 12220
internal_value=0 0.00540222 -0.00414844 0.0101982 0.00283988 0.01217 -0.00181751 0.00420272 0.00508694 -0.00597162 -0.000500275 0.00560801 0.00655579 0.00446422 0.00979119 0.0109849 0.0130881 0.000498371 0.00168062 0.0152957 -0.00534332 0.00871736 0.00918833 0.0191611 0.00358589 0.00439158 0.0143711 0.0206702 0.0102109 -0.00141378
internal_weight=0 6296.16 8267.15 2191.8 4104.36 1630.29 3629.54 3109.33 2470.54 4637.61 2183.03 2215.43 1573.2 561.507 926.669 712.258 471.833 1544.75 1004.15 703.625 3527.25 858.948 808.061 187.627 610.703 531.529 396.852 163.996 634.543 995.026
internal_count=196302 77371 118931 24812 52559 17696 50318 38709 30235 68613 29410 26929 18674 7116 10414 7925 5073 20377 12919 7282 51679 9887 9241 1803 7641 6610 4192 1555 7193 13850
is_linear=0
shrinkage=0.01


Tree=24
num_leaves=31
num_cat=0
split_feature=10 10 10 4 4 10 4 7 10 5 7 3 3 2 5 7 3 2 4 3 3 5 3 2 5 2 5 8 2 3
split_gain=3192.52 746.724 347.497 237.247 232.276 111.858 93.3832 91.3197 57.17 56.5131 54.3285 52.7116 46.867 84.9254 43.5354 38.9161 38.5829 37.9328 35.2059 34.1675 44.1138 29.4989 29.0706 29.1463 25.9765 24.177 23.647 22.8438 22.72 41.4073
threshold=0.36170400000000008 0.22282400000000002 0.463258 6.5000000000000009 13.500000000000002 0.12589400000000003 5.5000000000000009 1.5000000000000002 0.61189900000000008 52.500000000000007 2.5000000000000004 10.500000000000002 21.500000000000004 305977.50000000006 49.500000000000007 2.5000000000000004 30.500000000000004 284323.50000000006 5.5000000000000009 11.500000000000002 16.500000000000004 44.500000000000007 11.500000000000002 668394.00000000012 25.500000000000004 247387.50000000003 48.500000000000007 1.0000000180025095e-35 279173.00000000006 21.500000000000004
decision_type=2 2 2 2 2 2 2 2 2 2 2 2 2 2 2 2 2 2 2 2 2 2 2 2 2 2 2 2 2 2
left_child=1 3 6 5 7 19 10 -3 18 12 -2 -5 13 -9 27 24 17 -17 -4 -1 -21 -19 -15 -24 -7 -16 28 -13 -12 -30
right_child=2 4 8 11 -6 15 -8 9 -10 -11 26 14 -14 22 25 16 -18 21 -20 20 -22 -23 23 -25 -26 -27 -28 -29 29 -31
leaf_value=0.0088689633259000211 -0.0028759080374996895 0.00076688669358834392 -0.0042320215048163362 -0.0021175227109437368 -0.0014013840660367948 0.00047113075228490369 -0.0034309649755577009 0.0038971153808124289 -0.0079377837348281223 0.00053662915232619165 -0.00078534576267677363 0.011485389027999653 0.0032368910678840209 0.0011279653373084109 -0.0014071537023710534 0.0088185613743266347 0.0038603745632643715 0.015237922829021106 -0.0062545296726202876 0.021885148363126449 0.014959470561133994 0.0091953496288889689 0.010026002563474325 0.0053421665124886684 0.0085848408412069494 0.0052700940205698309 -0.0018056006162503807 0.0050340766200407941 0.0045121590434320851 -0.00024359501930953516
leaf_weight=59.571067310869694 542.53363306075335 639.20660720020533 1634.9404498636723 82.688118621706963 993.83945912867785 55.911176830530167 1785.8433924168348 716.57417624443769 1102.7821920514107 255.22606994956732 291.39733953773975 180.44924861937761 643.97326989471912 50.935271114110947 63.793582983314991 245.53654915094376 64.741555824875832 345.13312900811434 1876.2675588876009 138.53925420343876 307.81035700440407 112.00143131613731 639.76003338396549 174.28335028886795 145.92625091969967 323.73110201209784 258.32051925361156 83.656926058232784 430.70788065344095 315.1056247279048
leaf_count=628 7675 8474 23451 1112 13850 645 25684 8787 16934 3306 3879 2121 8255 646 850 2728 757 3559 28228 1328 3101 1248 7193 2048 1705 4048 3471 982 5283 4326
internal_value=0 0.00532513 -0.00412168 0.0100151 0.002805 0.0123296 -0.00180221 0.00414651 -0.00594234 0.00501531 -0.000217013 0.00535857 0.00552669 0.00645588 0.00631491 0.0103258 0.0113618 0.0120459 -0.0053142 0.0161586 0.0171203 0.0137684 0.00856985 0.00902935 0.00636203 0.004158 0.000892601 0.00946084 0.00156942 0.00249615
internal_weight=0 6323.29 8237.9 2209.49 4113.8 1475.17 3623.91 3119.96 4613.99 2480.75 1838.06 734.319 2225.53 1581.55 651.631 969.25 767.413 702.671 3511.21 505.921 446.35 457.135 864.979 814.043 201.837 387.525 1295.53 264.106 1037.21 745.814
internal_count=196302 77371 118931 24812 52559 15699 50318 38709 68613 30235 24634 9113 26929 18674 8001 10642 8292 7535 51679 5057 4429 4807 9887 9241 2350 4898 16959 3103 13488 9609
is_linear=0
shrinkage=0.01


Tree=25
num_leaves=31
num_cat=0
split_feature=10 10 10 4 4 10 10 5 3 2 5 2 3 4 3 2 5 2 10 2 10 5 3 10 3 2 2 6 10 6
split_gain=3140.94 684.649 356.866 243.583 236.679 107.032 90.0227 85.9106 72.0758 104.538 56.62 63.8145 48.5567 45.4192 42.7146 68.0205 41.9371 41.4729 39.0233 36.5449 34.7858 33.8512 32.5948 30.7705 30.187 35.3133 27.1762 27.1747 24.2201 23.0707
threshold=0.35625750000000006 0.21998650000000003 0.42615900000000007 4.5000000000000009 9.5000000000000018 0.51104650000000007 0.15691500000000003 52.500000000000007 21.500000000000004 305977.50000000006 40.500000000000007 267219.00000000006 11.500000000000002 6.5000000000000009 21.500000000000004 279173.00000000006 50.500000000000007 899795.00000000012 0.063623500000000013 224142.50000000003 0.074200000000000016 26.500000000000004 31.500000000000004 0.61189900000000008 10.500000000000002 835443.00000000012 1113266.0000000002 1.0000000180025095e-35 0.26067550000000006 1.0000000180025095e-35
decision_type=2 2 2 2 2 2 2 2 2 2 2 2 2 2 2 2 2 2 2 2 2 2 2 2 2 2 2 2 2 2
left_child=1 3 7 6 8 13 18 14 9 27 -5 -12 -11 -4 15 -2 -6 21 -1 -8 -13 -14 26 -7 -17 -26 -21 -3 -23 -9
right_child=2 4 5 10 16 23 19 29 -10 12 11 20 17 -15 -16 24 -18 -19 -20 22 -22 28 -24 -25 25 -27 -28 -29 -30 -31
leaf_value=0.019899695942478726 -0.0015450337924768412 0.0015016046204022828 -0.0026810156678548696 0.0097674761533258318 0.0019473177444118694 -0.005801477833521012 0.0046831319742719176 -0.0050526976620615931 0.0021570518932028555 0 -0.0011259096269212866 0.013015873089916719 0.0039250193250337535 -0.0051809751878831864 -0.0016866371444388181 -0.0036225451410652194 -0.0020034376449762649 0.00078903172933744725 0.014013837699185466 0.012517318330423225 0.0050659654113959429 0.012481431590839307 0.0035630453924583821 -0.0079178201208316683 0.0047116020050713475 -0.0032372555688915273 -0.00034166376600275458 0.0051066464791082403 0.0085217258206191897 -0.00054559778954882648
leaf_weight=152.36991328001022 448.02429024875164 495.50227481126785 1522.6865105628967 278.50292128324509 401.1676157489419 1935.0444112494588 108.88944053649902 462.88349589705467 851.16393226385117 76.596122071146965 159.02514509856701 65.054275281727314 124.97754593938589 1413.1891576871276 644.27796046435833 55.79526275396347 809.51469194144011 70.067146368324757 505.56637842208147 432.19875967502594 403.23930704593658 218.99358014017344 52.408085890114307 1100.868062980473 613.33651047945023 60.728767544031143 16.29914515465498 368.81381923705339 602.05438905954361 153.91368024796247
leaf_count=1394 6138 6218 21342 3114 5302 28681 1253 6684 10993 984 2104 768 1433 21030 9057 753 11311 863 5203 4591 4927 2466 618 17021 7927 812 186 4530 7028 2151
internal_value=0 0.00544927 -0.00393511 0.00997163 0.00300215 -0.00525163 0.0128049 -0.000709556 0.00459582 0.00565396 0.00600091 0.00432075 0.00771251 -0.00388608 0.000379882 0.00151447 -0.000690199 0.00829129 0.0153845 0.0100133 0.00618103 0.00884166 0.011162 -0.00657054 0.00339939 0.00398805 0.0120389 0.0030457 0.00958397 -0.00393612
internal_weight=0 6192.4 8410.75 2173.55 4018.85 5971.79 1267.73 2438.96 2808.17 1957 905.822 627.319 1092.69 2935.88 1822.16 1177.88 1210.68 1016.09 657.936 609.795 468.294 946.026 500.906 3035.91 729.861 674.065 448.498 864.316 821.048 616.797
internal_count=196882 75286 121596 24158 51128 88074 13245 33522 34515 23522 10913 7799 12774 42372 24687 15630 16613 11790 6597 6648 5695 10927 5395 45702 9492 8739 4777 10748 9494 8835
is_linear=0
shrinkage=0.01


Tree=26
num_leaves=31
num_cat=0
split_feature=10 10 10 5 5 10 10 5 7 6 10 7 7 3 3 2 2 3 2 3 10 10 2 3 5 7 2 3 6 3
split_gain=3074.96 661.362 352.734 222.158 202.795 106.339 101.269 84.5072 81.8125 66.7129 43.2404 41.9231 38.7455 39.6366 37.8625 63.3081 34.9583 34.0898 33.0761 47.7198 32.9716 30.7008 29.1603 28.7579 25.5307 31.4405 24.4122 23.0804 22.7946 22.6585
threshold=0.35625750000000006 0.21998650000000003 0.42615900000000007 50.500000000000007 49.500000000000007 0.51104650000000007 0.13265350000000001 52.500000000000007 1.5000000000000002 1.0000000180025095e-35 0.26067550000000006 2.5000000000000004 3.5000000000000004 10.500000000000002 21.500000000000004 279173.00000000006 247387.50000000003 30.500000000000004 180294.50000000003 21.500000000000004 0.063623500000000013 0.61189900000000008 323424.00000000006 21.500000000000004 49.500000000000007 2.5000000000000004 284323.50000000006 25.500000000000004 1.0000000180025095e-35 21.500000000000004
decision_type=2 2 2 2 2 2 2 2 2 2 2 2 2 2 2 2 2 2 2 2 2 2 2 2 2 2 2 2 2 2
left_child=1 4 7 8 6 24 20 11 -3 16 -10 -2 -8 -14 15 -13 -6 26 -12 -20 -1 -7 -5 -24 25 -4 -15 -22 -9 -27
right_child=2 3 5 22 9 21 12 28 10 -11 18 14 13 17 -16 -17 -18 -19 19 -21 27 -23 23 -25 -26 29 -28 -29 -30 -31
leaf_value=0.018550690567173737 -0.0020005101165610417 0.0011416945375136256 -0.0049975144691405222 -0.0029026191612126669 -0.0029483341454282475 -0.0057721567405279251 0.005954045599917396 -0.0050238215744908658 0.0076331709639169201 0.0097410105291070078 0.00071289822718410487 -0.00085694827154768967 0.0042167343919721576 0.0091428338317315998 -0.00097735996058572177 0.0047658732475189865 0.0041067922342148486 0.0045606835851811694 0.0063294746784620243 0.0024958519917229385 0.014397953833029407 -0.0078925602208023242 0.0030145775330765101 -0.0010104090728866573 -0.0051231791483320119 -0.0011760981437688746 0.013609696259668203 0.0078155407756628093 -0.0005403921842867187 -0.0039516995657403039
leaf_weight=183.05397237092257 526.33577277511358 590.91792056709528 625.21625893563032 398.3010189011693 88.754851788282394 1925.4733357056975 220.55930691957474 460.89862433075905 604.459148183465 191.8797060623765 206.08906385302544 323.83327040076256 84.567723758518696 182.21696019172668 453.5153297111392 519.04567117244005 324.94004110991955 65.011746317148209 959.38910517096519 498.65639997273684 346.30215159803629 1093.384987950325 276.25628612935543 494.55721203237772 1042.7167502045631 777.6900872066617 436.03788118809462 67.295549370348454 153.84278143942356 480.55782335996628
leaf_count=1709 7479 7815 9168 5539 1189 28681 2536 6684 7168 2212 2590 4377 957 2001 6322 6509 3989 756 11205 6410 3518 17021 3659 6742 15453 10797 4552 739 2151 6954
internal_value=0 0.00537136 -0.00390904 0.0029649 0.00979462 -0.00522267 0.0116775 -0.000703023 0.00446668 0.00485801 0.00533055 0.000375815 0.00969921 0.0107685 0.00134446 0.00259966 0.00258109 0.0115721 0.00449118 0.00502179 0.0149464 -0.00654179 -0.000703973 0.000425642 -0.00386005 -0.00315811 0.0123013 0.013339 -0.00390995 -0.00224015
internal_weight=0 6219.25 8382.51 4028.63 2190.62 5945.04 1585.05 2437.47 2859.51 605.575 2268.59 1822.73 988.394 767.834 1296.39 842.879 413.695 683.267 1664.13 1458.05 596.652 3018.86 1169.11 770.813 2926.18 1883.46 618.255 413.598 614.741 1258.25
internal_count=196882 75286 121596 51128 24158 88074 16768 33522 35188 7390 27373 24687 10802 8266 17208 10886 5178 7309 20205 17615 5966 45702 15940 10401 42372 26919 6553 4257 8835 17751
is_linear=0
shrinkage=0.01


Tree=27
num_leaves=31
num_cat=0
